{"learner":{"attributes":{"scikit_learn":"{\"_estimator_type\": \"regressor\"}"},"feature_names":[],"feature_types":[],"gradient_booster":{"model":{"gbtree_model_param":{"num_parallel_tree":"1","num_trees":"61"},"iteration_indptr":[0,1,2,3,4,5,6,7,8,9,10,11,12,13,14,15,16,17,18,19,20,21,22,23,24,25,26,27,28,29,30,31,32,33,34,35,36,37,38,39,40,41,42,43,44,45,46,47,48,49,50,51,52,53,54,55,56,57,58,59,60,61],"tree_info":[0,0,0,0,0,0,0,0,0,0,0,0,0,0,0,0,0,0,0,0,0,0,0,0,0,0,0,0,0,0,0,0,0,0,0,0,0,0,0,0,0,0,0,0,0,0,0,0,0,0,0,0,0,0,0,0,0,0,0,0,0],"trees":[{"base_weights":[-8.495706E-5,-2.0544844E3,6.544747E3,1.6436136E2,-4.6808687E3,1.129218E4,-6.5181885E2,2.5740515E3,-3.4614644E3,-3.2428027E3,-5.48252E3,3.9061902E3,1.6102026E4,-4.4974565E3,1.8414954E3,-8.5924884E2,4.8939604E3,-5.366552E3,-2.2047344E3,-1.756999E3,-5.478501E3,1.00227486E2,-5.679687E3,6.8096377E3,-9.47009E2,1.8859428E4,8.409532E3,-3.0359954E3,-5.419004E3,3.707426E3,-2.259315E3,-2.3987268E3,5.7107465E2,1.4855428E3,7.6813066E3,-4.8694814E3,-5.7771177E3,-3.5156792E3,-1.1609657E3,-4.9677085E3,3.8036664E2,-1.8681434E3,-4.9870073E3,2.5481003E3,-3.7269617E3,-4.9273604E3,-6.062487E3,5.9200054E3,1.1671902E4,1.082954E3,-4.1388315E3,1.6897021E4,2.7102178E4,1.0916653E4,3.693074E3,-2.0601624E3,-4.2649565E3,-4.5833364E3,-5.8808735E3,3.0968086E3,8.533844E3,-6.443034E2,-4.248846E3,-1.027349E3,-4.9762378E2,5.653124E2,-4.784272E2,-2.0687956E2,8.5444946E2,1.9778375E3,3.1709377E3,-1.2498813E3,-1.6070634E3,-1.5991893E3,-1.8010702E3,-1.2840973E3,-8.94213E2,-7.0116684E1,-7.052654E2,-1.2914226E3,-1.6268184E3,-4.5307227E2,6.3847876E2,-1.261868E3,-1.648027E3,6.568947E1,2.9188584E3,-1.6494414E3,-7.65761E2,-1.8515336E3,-1.2349702E3,-1.8216893E3,2.8296099E3,1.9316226E3,-5.0489603E2,4.445866E3,2.8303635E3,1.0848315E1,1.001786E3,-9.702537E2,-1.6871958E3,4.257236E3,6.1609976E3,7.13362E3,1.0333552E4,2.720885E3,4.690949E3,1.6536998E3,1.3107768E2,-1.6844863E3,-4.2151514E2,-1.0641276E3,-1.4075396E3,-1.0208902E3,-1.6245463E3,-1.6452748E3,-1.8435032E3,-8.940748E2,1.0311646E3,3.2065054E3,1.7858746E3,2.8492755E2,-7.144726E2,-9.046484E2,-1.5482992E3],"categories":[],"categories_nodes":[],"categories_segments":[],"categories_sizes":[],"default_left":[0,0,0,0,0,0,0,0,0,0,0,0,0,0,0,0,0,0,0,0,0,0,0,0,0,0,0,0,0,0,0,0,0,0,0,0,0,0,0,0,0,0,0,0,0,0,0,0,0,0,0,0,0,0,0,0,0,0,0,0,0,0,0,0,0,0,0,0,0,0,0,0,0,0,0,0,0,0,0,0,0,0,0,0,0,0,0,0,0,0,0,0,0,0,0,0,0,0,0,0,0,0,0,0,0,0,0,0,0,0,0,0,0,0,0,0,0,0,0,0,0,0,0,0,0],"id":0,"left_children":[1,3,5,7,9,11,13,15,17,19,21,23,25,27,29,31,33,35,37,39,41,43,45,47,49,51,53,55,57,59,61,63,65,67,69,71,73,75,77,79,81,-1,83,85,87,89,91,93,95,97,99,101,103,105,107,109,111,113,115,117,119,121,123,-1,-1,-1,-1,-1,-1,-1,-1,-1,-1,-1,-1,-1,-1,-1,-1,-1,-1,-1,-1,-1,-1,-1,-1,-1,-1,-1,-1,-1,-1,-1,-1,-1,-1,-1,-1,-1,-1,-1,-1,-1,-1,-1,-1,-1,-1,-1,-1,-1,-1,-1,-1,-1,-1,-1,-1,-1,-1,-1,-1,-1,-1],"loss_changes":[3.9473523E12,1.3020542E12,2.396287E12,1.05818725E12,1.1793832E11,1.5012436E12,2.673228E11,5.7952554E11,1.1575873E11,1.2165163E11,7.231334E10,2.348754E11,5.4270204E11,1.4752629E10,1.294314E11,6.4606626E10,4.124978E11,3.894149E9,3.9864762E10,1.5100348E11,5.3491466E9,2.1013613E10,1.8244305E10,4.504286E10,4.04352E10,3.042742E11,7.9835726E10,5.079675E9,2.5683067E9,3.4233549E10,1.6994644E10,1.0720444E10,4.326612E10,5.7901666E10,7.503164E10,2.9595402E9,1.03163494E9,5.270274E9,1.7899006E10,2.6294682E9,4.3660083E10,0E0,3.4690662E9,2.2879744E10,1.8060646E9,2.1570454E10,6.449398E9,3.478854E10,1.1212571E10,9.010577E9,3.241263E9,1.4961161E11,8.754797E10,3.83034E10,1.3894769E10,5.504348E9,5.584978E8,2.3360512E9,4.1961062E8,2.1360976E10,7.1929856E9,8.0914417E9,2.6506936E9,0E0,0E0,0E0,0E0,0E0,0E0,0E0,0E0,0E0,0E0,0E0,0E0,0E0,0E0,0E0,0E0,0E0,0E0,0E0,0E0,0E0,0E0,0E0,0E0,0E0,0E0,0E0,0E0,0E0,0E0,0E0,0E0,0E0,0E0,0E0,0E0,0E0,0E0,0E0,0E0,0E0,0E0,0E0,0E0,0E0,0E0,0E0,0E0,0E0,0E0,0E0,0E0,0E0,0E0,0E0,0E0,0E0,0E0,0E0,0E0,0E0,0E0],"parents":[2147483647,0,0,1,1,2,2,3,3,4,4,5,5,6,6,7,7,8,8,9,9,10,10,11,11,12,12,13,13,14,14,15,15,16,16,17,17,18,18,19,19,20,20,21,21,22,22,23,23,24,24,25,25,26,26,27,27,28,28,29,29,30,30,31,31,32,32,33,33,34,34,35,35,36,36,37,37,38,38,39,39,40,40,42,42,43,43,44,44,45,45,46,46,47,47,48,48,49,49,50,50,51,51,52,52,53,53,54,54,55,55,56,56,57,57,58,58,59,59,60,60,61,61,62,62],"right_children":[2,4,6,8,10,12,14,16,18,20,22,24,26,28,30,32,34,36,38,40,42,44,46,48,50,52,54,56,58,60,62,64,66,68,70,72,74,76,78,80,82,-1,84,86,88,90,92,94,96,98,100,102,104,106,108,110,112,114,116,118,120,122,124,-1,-1,-1,-1,-1,-1,-1,-1,-1,-1,-1,-1,-1,-1,-1,-1,-1,-1,-1,-1,-1,-1,-1,-1,-1,-1,-1,-1,-1,-1,-1,-1,-1,-1,-1,-1,-1,-1,-1,-1,-1,-1,-1,-1,-1,-1,-1,-1,-1,-1,-1,-1,-1,-1,-1,-1,-1,-1,-1,-1,-1,-1],"split_conditions":[1.4159793E-1,3.4846958E-2,1E0,1E0,4.5751527E-2,5E-1,5E-1,5E-1,5E-1,1E0,1.4203543E-2,2.779735E-2,3.1335663E-2,2.2428893E-2,2.9592652E-2,8.655795E-2,8.353377E-2,2.1048633E-2,8.292893E-2,5E-1,5E-1,1E0,5.5416383E-2,3.806101E-1,3.6185216E-2,3.6249417E-1,4.0440023E-2,2.6303943E-2,2.7401833E-2,4.1690043E-1,3.6861945E-2,5.732425E-2,2.472473E-2,5.3493626E-2,6.25E-1,2.3701672E-2,2.1840483E-2,5.47033E-2,2.3746246E-2,3.881018E-2,8.595311E-2,-1.8681434E3,2.297804E-2,1.9500935E-1,5E-1,5E-1,3.2778168E-1,6.350405E-1,2.0152738E-2,1.9704115E-1,4.403457E-2,6.25E-1,2.5046825E-1,1.9704115E-1,4.765793E-2,7.817832E-3,1.7018808E-2,2.3494028E-2,3.2534726E-2,7.817832E-3,2.6920417E-2,2.6303943E-2,2.4423767E-2,-1.027349E3,-4.9762378E2,5.653124E2,-4.784272E2,-2.0687956E2,8.5444946E2,1.9778375E3,3.1709377E3,-1.2498813E3,-1.6070634E3,-1.5991893E3,-1.8010702E3,-1.2840973E3,-8.94213E2,-7.0116684E1,-7.052654E2,-1.2914226E3,-1.6268184E3,-4.5307227E2,6.3847876E2,-1.261868E3,-1.648027E3,6.568947E1,2.9188584E3,-1.6494414E3,-7.65761E2,-1.8515336E3,-1.2349702E3,-1.8216893E3,2.8296099E3,1.9316226E3,-5.0489603E2,4.445866E3,2.8303635E3,1.0848315E1,1.001786E3,-9.702537E2,-1.6871958E3,4.257236E3,6.1609976E3,7.13362E3,1.0333552E4,2.720885E3,4.690949E3,1.6536998E3,1.3107768E2,-1.6844863E3,-4.2151514E2,-1.0641276E3,-1.4075396E3,-1.0208902E3,-1.6245463E3,-1.6452748E3,-1.8435032E3,-8.940748E2,1.0311646E3,3.2065054E3,1.7858746E3,2.8492755E2,-7.144726E2,-9.046484E2,-1.5482992E3],"split_indices":[4,20,10,10,20,8,8,8,8,10,4,20,20,20,20,4,4,20,4,8,8,10,20,13,20,13,20,19,20,13,20,4,20,4,12,19,19,4,20,20,4,0,19,13,8,8,13,4,20,4,20,12,4,4,20,19,20,19,20,19,19,19,19,0,0,0,0,0,0,0,0,0,0,0,0,0,0,0,0,0,0,0,0,0,0,0,0,0,0,0,0,0,0,0,0,0,0,0,0,0,0,0,0,0,0,0,0,0,0,0,0,0,0,0,0,0,0,0,0,0,0,0,0,0,0],"split_type":[0,0,0,0,0,0,0,0,0,0,0,0,0,0,0,0,0,0,0,0,0,0,0,0,0,0,0,0,0,0,0,0,0,0,0,0,0,0,0,0,0,0,0,0,0,0,0,0,0,0,0,0,0,0,0,0,0,0,0,0,0,0,0,0,0,0,0,0,0,0,0,0,0,0,0,0,0,0,0,0,0,0,0,0,0,0,0,0,0,0,0,0,0,0,0,0,0,0,0,0,0,0,0,0,0,0,0,0,0,0,0,0,0,0,0,0,0,0,0,0,0,0,0,0,0],"sum_hessian":[2.93567E5,2.2343E5,7.0137E4,1.21112E5,1.02318E5,4.2259E4,2.7878E4,7.2758E4,4.8354E4,3.6624E4,6.5694E4,1.6667E4,2.5592E4,1.0965E4,1.6913E4,2.9339E4,4.3419E4,1.9218E4,2.9136E4,2.2003E4,1.4621E4,2.241E3,6.3453E4,1.0428E4,6.239E3,1.8838E4,6.754E3,4.242E3,6.723E3,1.1624E4,5.289E3,1.413E4,1.5209E4,1.9534E4,2.3885E4,8.699E3,1.0519E4,1.2914E4,1.6222E4,8.793E3,1.321E4,5.79E3,8.831E3,1.367E3,8.74E2,2.1403E4,4.205E4,8.817E3,1.611E3,3.814E3,2.425E3,1.5218E4,3.62E3,4.409E3,2.345E3,2.366E3,1.876E3,2.397E3,4.326E3,1.032E4,1.304E3,2.92E3,2.369E3,5.92E3,8.21E3,9.468E3,5.741E3,7.524E3,1.201E4,1.735E4,6.535E3,3.565E3,5.134E3,3.548E3,6.971E3,5.313E3,7.601E3,9.118E3,7.104E3,3.583E3,5.21E3,6.346E3,6.864E3,3.478E3,5.353E3,1.033E3,3.34E2,3.47E2,5.27E2,8.441E3,1.2962E4,4.2024E4,2.6E1,8.254E3,5.63E2,6.67E2,9.44E2,2.606E3,1.208E3,1.509E3,9.16E2,8.731E3,6.487E3,2.495E3,1.125E3,3.171E3,1.238E3,1.504E3,8.41E2,3.67E2,1.999E3,7.03E2,1.173E3,9.93E2,1.404E3,1.738E3,2.588E3,5.47E2,9.773E3,7.09E2,5.95E2,1.523E3,1.397E3,1.009E3,1.36E3],"tree_param":{"num_deleted":"0","num_feature":"22","num_nodes":"125","size_leaf_vector":"1"}},{"base_weights":[7.42869E-2,-1.7388535E3,3.886315E3,-6.198287E1,-3.248657E3,6.967612E3,-7.9285944E2,1.5472483E3,-2.475263E3,-2.1480918E3,-3.7937979E3,2.1340093E3,1.0145877E4,-3.2472212E3,8.0425464E2,-6.6250934E2,3.039554E3,-3.7630027E3,-1.6245056E3,-1.0914557E3,-3.745166E3,-4.4753024E2,-3.9448652E3,4.531833E3,-8.929783E2,7.4873486E3,1.4955931E4,-2.058923E3,-3.8003298E3,2.5250732E3,-1.6028242E3,-1.9587798E3,1.3659395E2,5.8805164E2,4.716086E3,-3.1868728E3,-3.939078E3,-2.5939265E3,-9.908944E2,-3.2985212E3,3.7885483E2,-1.3109419E3,-3.3344487E3,-1.5147205E3,5.4910864E3,-3.3180405E3,-4.2587075E3,3.0956108E3,6.8410596E3,8.4031903E2,-2.7093098E3,1.0386377E4,4.283385E3,-2.1539796E2,1.6130038E4,-4.737145E2,-2.4607063E3,-3.3058496E3,-4.214788E3,1.0178962E2,3.3912222E3,-7.384741E2,-3.6921775E3,-4.246163E2,-7.956414E2,3.9352573E2,-2.3753639E2,-3.8041562E2,4.0016898E2,5.410015E2,1.6049274E3,-1.1372296E3,-8.2382715E2,-1.0757992E3,-1.2339803E3,-9.975137E2,-6.927293E2,-3.4750553E1,-5.491997E2,-1.1197511E3,-8.4289325E2,-4.537517E2,3.473305E2,-8.47627E2,-1.1868134E3,-1.0490856E3,-6.916768E1,-1.680415E2,2.8158423E3,-7.539725E2,-1.3486299E3,-1.1824891E3,-1.3213715E3,2.319911E2,1.185989E3,1.4908739E3,2.7454985E3,5.452553E1,1.0094592E3,-5.0209396E2,-1.1313346E3,2.659602E3,3.8742734E3,1.7282004E3,3.693463E2,-7.6190106E2,2.44443E3,5.7587534E3,3.271402E3,-2.9065515E2,7.400792E2,-5.989883E2,-9.901957E2,-6.8603204E2,-1.1384524E3,-1.1487792E3,-1.3023776E3,2.4437727E2,-4.0826254E2,6.41846E2,1.6147643E3,2.524581E2,-5.053226E2,-8.260088E2,-1.2887595E3],"categories":[],"categories_nodes":[],"categories_segments":[],"categories_sizes":[],"default_left":[0,0,0,0,0,0,0,0,0,0,0,0,0,0,0,0,0,0,0,0,0,0,0,0,0,0,0,0,0,0,0,0,0,0,0,0,0,0,0,0,0,0,0,0,0,0,0,0,0,0,0,0,0,0,0,0,0,0,0,0,0,0,0,0,0,0,0,0,0,0,0,0,0,0,0,0,0,0,0,0,0,0,0,0,0,0,0,0,0,0,0,0,0,0,0,0,0,0,0,0,0,0,0,0,0,0,0,0,0,0,0,0,0,0,0,0,0,0,0,0,0,0,0,0,0],"id":1,"left_children":[1,3,5,7,9,11,13,15,17,19,21,23,25,27,29,31,33,35,37,39,41,43,45,47,49,51,53,55,57,59,61,63,65,67,69,71,73,75,77,79,81,-1,83,85,87,89,91,93,95,97,99,101,103,105,107,109,111,113,115,117,119,121,123,-1,-1,-1,-1,-1,-1,-1,-1,-1,-1,-1,-1,-1,-1,-1,-1,-1,-1,-1,-1,-1,-1,-1,-1,-1,-1,-1,-1,-1,-1,-1,-1,-1,-1,-1,-1,-1,-1,-1,-1,-1,-1,-1,-1,-1,-1,-1,-1,-1,-1,-1,-1,-1,-1,-1,-1,-1,-1,-1,-1,-1,-1],"loss_changes":[1.9839076E12,5.134808E11,1.3084612E12,3.7318348E11,6.4022905E10,8.4059724E11,1.4125215E11,1.9011389E11,4.211027E10,5.9658387E10,3.607711E10,1.5756467E11,4.22034E11,9.328525E9,9.0427105E10,2.4073513E10,1.4143131E11,1.5387853E9,1.4217609E10,6.905314E10,3.5968942E9,1.955358E10,1.3419741E10,4.0152334E10,3.021281E10,1.9745433E11,2.0930363E11,2.8738478E9,1.9723551E9,2.671897E10,1.6433064E10,3.3355182E9,1.5687377E10,1.9350966E10,3.770961E10,9.4386586E8,7.0539674E8,1.8977505E9,1.0289151E10,1.7945969E9,1.881754E10,0E0,2.6773422E9,6.6556897E9,1.1083087E10,2.1581808E10,2.0870595E9,1.4875763E10,2.0036321E10,8.1643305E9,5.146759E9,4.2803134E10,4.5542916E10,1.6446687E10,1.7450454E11,1.3331916E9,1.3970821E9,2.195886E9,2.4027955E8,3.4969103E9,2.3364207E10,9.625003E9,1.497432E9,0E0,0E0,0E0,0E0,0E0,0E0,0E0,0E0,0E0,0E0,0E0,0E0,0E0,0E0,0E0,0E0,0E0,0E0,0E0,0E0,0E0,0E0,0E0,0E0,0E0,0E0,0E0,0E0,0E0,0E0,0E0,0E0,0E0,0E0,0E0,0E0,0E0,0E0,0E0,0E0,0E0,0E0,0E0,0E0,0E0,0E0,0E0,0E0,0E0,0E0,0E0,0E0,0E0,0E0,0E0,0E0,0E0,0E0,0E0,0E0,0E0,0E0],"parents":[2147483647,0,0,1,1,2,2,3,3,4,4,5,5,6,6,7,7,8,8,9,9,10,10,11,11,12,12,13,13,14,14,15,15,16,16,17,17,18,18,19,19,20,20,21,21,22,22,23,23,24,24,25,25,26,26,27,27,28,28,29,29,30,30,31,31,32,32,33,33,34,34,35,35,36,36,37,37,38,38,39,39,40,40,42,42,43,43,44,44,45,45,46,46,47,47,48,48,49,49,50,50,51,51,52,52,53,53,54,54,55,55,56,56,57,57,58,58,59,59,60,60,61,61,62,62],"right_children":[2,4,6,8,10,12,14,16,18,20,22,24,26,28,30,32,34,36,38,40,42,44,46,48,50,52,54,56,58,60,62,64,66,68,70,72,74,76,78,80,82,-1,84,86,88,90,92,94,96,98,100,102,104,106,108,110,112,114,116,118,120,122,124,-1,-1,-1,-1,-1,-1,-1,-1,-1,-1,-1,-1,-1,-1,-1,-1,-1,-1,-1,-1,-1,-1,-1,-1,-1,-1,-1,-1,-1,-1,-1,-1,-1,-1,-1,-1,-1,-1,-1,-1,-1,-1,-1,-1,-1,-1,-1,-1,-1,-1,-1,-1,-1,-1,-1,-1,-1,-1,-1,-1,-1,-1],"split_conditions":[1.2667868E-1,3.1723544E-2,1E0,1E0,4.275047E-2,5E-1,5E-1,5E-1,5E-1,1E0,2.0026088E-2,2.6545247E-2,1.8454123E-1,2.1265546E-2,2.7206315E-2,7.143707E-2,7.345319E-2,1.8973337E-2,7.2445124E-2,5E-1,5E-1,2.2235858E-1,5.261641E-2,6.2583333E-1,3.401858E-2,2.6961856E-2,7.7775773E-3,4.933565E-2,2.88111E-2,5.425E-1,3.9613098E-2,2.1048633E-2,2.0602094E-2,4.280821E-2,5.416667E-1,7.5872526E-2,1.8206293E-2,4.200176E-2,2.5673712E-2,8.857406E-2,6.9824174E-2,-1.3109419E3,2.7005434E-2,5E-1,5E-1,1E0,6.1703976E-2,1.2067555E-1,1.825251E-1,2.0732334E-1,4.0440023E-2,6.25E-1,3.988739E-2,1.9851567E-1,2.6764316E-2,4.519051E-1,3.1012934E-2,2.1535471E-2,1.949138E-2,2.9886978E-2,1.9038796E-1,2.257302E-2,4.403457E-2,-4.246163E2,-7.956414E2,3.9352573E2,-2.3753639E2,-3.8041562E2,4.0016898E2,5.410015E2,1.6049274E3,-1.1372296E3,-8.2382715E2,-1.0757992E3,-1.2339803E3,-9.975137E2,-6.927293E2,-3.4750553E1,-5.491997E2,-1.1197511E3,-8.4289325E2,-4.537517E2,3.473305E2,-8.47627E2,-1.1868134E3,-1.0490856E3,-6.916768E1,-1.680415E2,2.8158423E3,-7.539725E2,-1.3486299E3,-1.1824891E3,-1.3213715E3,2.319911E2,1.185989E3,1.4908739E3,2.7454985E3,5.452553E1,1.0094592E3,-5.0209396E2,-1.1313346E3,2.659602E3,3.8742734E3,1.7282004E3,3.693463E2,-7.6190106E2,2.44443E3,5.7587534E3,3.271402E3,-2.9065515E2,7.400792E2,-5.989883E2,-9.901957E2,-6.8603204E2,-1.1384524E3,-1.1487792E3,-1.3023776E3,2.4437727E2,-4.0826254E2,6.41846E2,1.6147643E3,2.524581E2,-5.053226E2,-8.260088E2,-1.2887595E3],"split_indices":[4,20,10,10,20,8,8,8,8,10,4,20,4,20,20,4,4,19,4,8,8,13,20,12,20,20,20,21,20,12,20,20,20,4,12,4,20,4,19,4,4,0,19,8,8,10,20,13,4,4,20,12,20,13,20,13,19,19,19,19,4,19,20,0,0,0,0,0,0,0,0,0,0,0,0,0,0,0,0,0,0,0,0,0,0,0,0,0,0,0,0,0,0,0,0,0,0,0,0,0,0,0,0,0,0,0,0,0,0,0,0,0,0,0,0,0,0,0,0,0,0,0,0,0,0],"split_type":[0,0,0,0,0,0,0,0,0,0,0,0,0,0,0,0,0,0,0,0,0,0,0,0,0,0,0,0,0,0,0,0,0,0,0,0,0,0,0,0,0,0,0,0,0,0,0,0,0,0,0,0,0,0,0,0,0,0,0,0,0,0,0,0,0,0,0,0,0,0,0,0,0,0,0,0,0,0,0,0,0,0,0,0,0,0,0,0,0,0,0,0,0,0,0,0,0,0,0,0,0,0,0,0,0,0,0,0,0,0,0,0,0,0,0,0,0,0,0,0,0,0,0,0,0],"sum_hessian":[2.93567E5,2.02816E5,9.0751E4,9.6092E4,1.06724E5,5.4718E4,3.6033E4,5.765E4,3.8442E4,3.5354E4,7.137E4,2.1707E4,3.3011E4,1.4204E4,2.1829E4,2.3239E4,3.4411E4,1.5292E4,2.315E4,2.1278E4,1.4076E4,3.083E3,6.8287E4,1.2112E4,9.595E3,2.1262E4,1.1749E4,4.513E3,9.691E3,1.2729E4,9.1E3,8.862E3,1.4377E4,1.3976E4,2.0435E4,3.584E3,1.1708E4,9.149E3,1.4001E4,8.507E3,1.2771E4,5.58E3,8.496E3,2.614E3,4.69E2,2.2787E4,4.55E4,7.469E3,4.643E3,4.91E3,4.685E3,1.1161E4,1.0101E4,8.44E2,1.0905E4,9.13E2,3.6E3,4.423E3,5.268E3,3.352E3,9.377E3,6.438E3,2.662E3,4.97E3,3.892E3,6.345E3,8.032E3,4.006E3,9.97E3,3.652E3,1.6783E4,1.509E3,2.075E3,3.875E3,7.833E3,2.562E3,6.587E3,6.857E3,7.144E3,4.503E3,4.004E3,3.725E3,9.046E3,4.674E3,3.822E3,1.027E3,1.587E3,1.84E2,2.85E2,1.3537E4,9.25E3,1.4345E4,3.1155E4,2.015E3,5.454E3,2.567E3,2.076E3,3.895E3,1.015E3,2.373E3,2.312E3,6.971E3,4.19E3,6.806E3,3.295E3,6.61E2,1.83E2,6.871E3,4.034E3,7.82E2,1.31E2,2.321E3,1.279E3,1.436E3,2.987E3,1.309E3,3.959E3,2.254E3,1.098E3,5.759E3,3.618E3,2.411E3,4.027E3,1.044E3,1.618E3],"tree_param":{"num_deleted":"0","num_feature":"22","num_nodes":"125","size_leaf_vector":"1"}},{"base_weights":[6.836873E-2,-9.107159E2,3.8352463E3,4.350535E2,-2.0778247E3,6.3389023E3,2.2243298E1,1.7291173E3,-1.5041886E3,-1.5212407E3,-2.9155955E3,2.4599758E3,8.854163E3,-2.0790261E3,1.3774799E3,3.2811096E2,3.5718196E3,-2.5360723E3,-8.226849E2,-2.733364E3,-7.1039575E2,-2.5245469E3,-3.1421677E3,4.510173E3,3.797758E2,4.6910312E3,1.0533654E4,-1.0697241E3,-2.4712114E3,3.001102E3,3.9616833E1,-8.9732086E2,1.1616312E3,1.0504973E3,5.248913E3,-2.2493953E3,-2.8795437E3,-1.5092936E3,4.4979202E1,-2.0058159E3,-3.1240107E3,4.1547913E2,-2.164634E3,-3.061596E3,-2.1699612E3,1.8965602E2,-3.1519575E3,-2.0765017E3,5.2245493E3,1.4904633E3,-1.3140508E3,-2.425302E3,5.498218E3,8.420442E3,1.5342798E4,-3.3670208E3,-6.25611E2,-1.6674408E3,-2.7297405E3,-2.9324075E3,3.639125E3,1.3004807E3,-1.1320591E3,-6.230864E2,-1.6608195E2,-1.2781551E2,5.888956E2,7.6843195E2,1.085454E2,6.9476843E2,1.8143413E3,-7.99009E2,-5.60414E2,-7.3459753E2,-8.878002E2,-6.625107E2,-3.2307825E2,3.984086E2,-1.6263835E2,-7.317872E2,-4.3542053E2,-9.413012E2,3.1845286E3,-1.8586374E2,5.84655E2,1.2189806E3,-7.292955E2,-8.585117E2,-9.256298E2,-5.329602E2,-8.4828784E2,-1.1348432E2,1.9239772E3,-9.4674994E2,2.8431674E2,-1.0900532E3,4.3397565E2,1.2140314E3,2.736514E3,2.7828516E2,1.2401648E3,-1.487146E2,-6.80645E2,2.720917E3,-8.7472504E2,2.508448E3,1.1532637E3,3.3714163E3,1.8687897E3,3.6195627E3,5.935569E3,-1.0187752E3,1.2113964E3,2.1574005E2,-4.9095004E2,-3.4139435E2,-8.736923E2,-7.1716425E2,-8.919717E2,-9.431176E2,9.932216E2,1.6841027E3,6.561658E2,1.7245517E2,1.3168254E3,-4.4849478E2,3.481056E2],"categories":[],"categories_nodes":[],"categories_segments":[],"categories_sizes":[],"default_left":[0,0,0,0,0,0,0,0,0,0,0,0,0,0,0,0,0,0,0,0,0,0,0,0,0,0,0,0,0,0,0,0,0,0,0,0,0,0,0,0,0,0,0,0,0,0,0,0,0,0,0,0,0,0,0,0,0,0,0,0,0,0,0,0,0,0,0,0,0,0,0,0,0,0,0,0,0,0,0,0,0,0,0,0,0,0,0,0,0,0,0,0,0,0,0,0,0,0,0,0,0,0,0,0,0,0,0,0,0,0,0,0,0,0,0,0,0,0,0,0,0,0,0,0,0,0,0],"id":2,"left_children":[1,3,5,7,9,11,13,15,17,19,21,23,25,27,29,31,33,35,37,39,41,43,45,47,49,51,53,55,57,59,61,63,65,67,69,71,73,75,77,79,81,83,85,87,89,91,93,95,97,99,101,103,105,107,109,111,113,115,117,119,121,123,125,-1,-1,-1,-1,-1,-1,-1,-1,-1,-1,-1,-1,-1,-1,-1,-1,-1,-1,-1,-1,-1,-1,-1,-1,-1,-1,-1,-1,-1,-1,-1,-1,-1,-1,-1,-1,-1,-1,-1,-1,-1,-1,-1,-1,-1,-1,-1,-1,-1,-1,-1,-1,-1,-1,-1,-1,-1,-1,-1,-1,-1,-1,-1,-1],"loss_changes":[1.0254424E12,3.726099E11,5.378276E11,2.7650716E11,5.9237237E10,3.317777E11,6.3595237E10,1.7060635E11,3.1009767E10,7.502542E10,4.485251E9,5.7057313E10,1.441944E11,3.4632745E9,2.9489455E10,3.8348296E10,1.2068838E11,1.7206067E9,1.5823075E10,8.689844E9,7.48922E10,3.537068E9,1.0477896E9,3.1715607E10,1.2497632E10,3.4087993E10,1.49253E11,2.49957E9,1.3056123E9,2.3228457E10,1.0998672E10,6.1613926E9,2.8430295E10,1.1864519E10,4.015014E10,1.5050138E9,2.6697318E8,4.479179E9,8.839794E9,2.5660088E9,3.7692047E9,4.091923E10,3.3119666E10,2.64192E7,2.8960113E9,3.3821434E8,5.116068E8,3.6256722E9,2.7865678E10,5.9653714E9,2.0545249E9,3.437261E9,2.520059E10,6.2989074E10,6.507941E10,9.86624E7,2.796078E9,1.0097331E9,3.867771E8,7.967053E8,1.5864398E10,8.03523E9,3.2123054E9,0E0,0E0,0E0,0E0,0E0,0E0,0E0,0E0,0E0,0E0,0E0,0E0,0E0,0E0,0E0,0E0,0E0,0E0,0E0,0E0,0E0,0E0,0E0,0E0,0E0,0E0,0E0,0E0,0E0,0E0,0E0,0E0,0E0,0E0,0E0,0E0,0E0,0E0,0E0,0E0,0E0,0E0,0E0,0E0,0E0,0E0,0E0,0E0,0E0,0E0,0E0,0E0,0E0,0E0,0E0,0E0,0E0,0E0,0E0,0E0,0E0,0E0,0E0,0E0],"parents":[2147483647,0,0,1,1,2,2,3,3,4,4,5,5,6,6,7,7,8,8,9,9,10,10,11,11,12,12,13,13,14,14,15,15,16,16,17,17,18,18,19,19,20,20,21,21,22,22,23,23,24,24,25,25,26,26,27,27,28,28,29,29,30,30,31,31,32,32,33,33,34,34,35,35,36,36,37,37,38,38,39,39,40,40,41,41,42,42,43,43,44,44,45,45,46,46,47,47,48,48,49,49,50,50,51,51,52,52,53,53,54,54,55,55,56,56,57,57,58,58,59,59,60,60,61,61,62,62],"right_children":[2,4,6,8,10,12,14,16,18,20,22,24,26,28,30,32,34,36,38,40,42,44,46,48,50,52,54,56,58,60,62,64,66,68,70,72,74,76,78,80,82,84,86,88,90,92,94,96,98,100,102,104,106,108,110,112,114,116,118,120,122,124,126,-1,-1,-1,-1,-1,-1,-1,-1,-1,-1,-1,-1,-1,-1,-1,-1,-1,-1,-1,-1,-1,-1,-1,-1,-1,-1,-1,-1,-1,-1,-1,-1,-1,-1,-1,-1,-1,-1,-1,-1,-1,-1,-1,-1,-1,-1,-1,-1,-1,-1,-1,-1,-1,-1,-1,-1,-1,-1,-1,-1,-1,-1,-1,-1],"split_conditions":[1.5389624E-1,2.9771587E-2,1E0,1E0,1E0,5E-1,5E-1,9.8251425E-2,5E-1,5E-1,4.1559935E-2,2.4435375E-2,1.4621319E-1,1.9792676E-2,2.335096E-2,5E-1,5E-1,2.7210666E-2,9.724336E-2,4.0712517E-2,5.019767E-2,5E-1,2.5E-1,1.255666E-2,3.2943744E-2,1.255666E-2,2.202265E-1,1.3054803E-2,1.9288402E-2,1.3054803E-2,2.5553366E-2,4.744528E-2,5.4406263E-2,1.8466158E-2,7.684666E-2,8.7566E-2,1.5200652E-2,5.416667E-1,5.8736805E-2,1.0268688E-1,3.9142123E-1,1.0046915E-1,1.4203543E-2,1.5758758E-2,2.9183E-2,3.4074822E-1,3.7125993E-1,1.7584151E-1,2.2869419E-1,2.3837154E-1,3.881018E-2,2.4401666E-1,2.2631478E-2,2.3929093E-2,6.25E-1,5.8792186E-1,2.4423767E-2,3.2735538E-2,2.6057148E-2,6.6583335E-1,2.3795726E-2,2.2869419E-1,2.3837154E-1,-6.230864E2,-1.6608195E2,-1.2781551E2,5.888956E2,7.6843195E2,1.085454E2,6.9476843E2,1.8143413E3,-7.99009E2,-5.60414E2,-7.3459753E2,-8.878002E2,-6.625107E2,-3.2307825E2,3.984086E2,-1.6263835E2,-7.317872E2,-4.3542053E2,-9.413012E2,3.1845286E3,-1.8586374E2,5.84655E2,1.2189806E3,-7.292955E2,-8.585117E2,-9.256298E2,-5.329602E2,-8.4828784E2,-1.1348432E2,1.9239772E3,-9.4674994E2,2.8431674E2,-1.0900532E3,4.3397565E2,1.2140314E3,2.736514E3,2.7828516E2,1.2401648E3,-1.487146E2,-6.80645E2,2.720917E3,-8.7472504E2,2.508448E3,1.1532637E3,3.3714163E3,1.8687897E3,3.6195627E3,5.935569E3,-1.0187752E3,1.2113964E3,2.1574005E2,-4.9095004E2,-3.4139435E2,-8.736923E2,-7.1716425E2,-8.919717E2,-9.431176E2,9.932216E2,1.6841027E3,6.561658E2,1.7245517E2,1.3168254E3,-4.4849478E2,3.481056E2],"split_indices":[4,20,10,10,10,8,8,4,8,8,20,20,13,20,20,8,8,19,4,20,20,8,9,20,20,20,4,19,19,19,19,4,13,20,13,4,20,12,21,4,13,4,4,19,19,14,13,13,4,4,20,4,20,20,12,11,19,20,20,12,19,4,4,0,0,0,0,0,0,0,0,0,0,0,0,0,0,0,0,0,0,0,0,0,0,0,0,0,0,0,0,0,0,0,0,0,0,0,0,0,0,0,0,0,0,0,0,0,0,0,0,0,0,0,0,0,0,0,0,0,0,0,0,0,0,0,0],"split_type":[0,0,0,0,0,0,0,0,0,0,0,0,0,0,0,0,0,0,0,0,0,0,0,0,0,0,0,0,0,0,0,0,0,0,0,0,0,0,0,0,0,0,0,0,0,0,0,0,0,0,0,0,0,0,0,0,0,0,0,0,0,0,0,0,0,0,0,0,0,0,0,0,0,0,0,0,0,0,0,0,0,0,0,0,0,0,0,0,0,0,0,0,0,0,0,0,0,0,0,0,0,0,0,0,0,0,0,0,0,0,0,0,0,0,0,0,0,0,0,0,0,0,0,0,0,0,0],"sum_hessian":[2.93567E5,2.3723E5,5.6337E4,1.10182E5,1.27048E5,3.4007E4,2.233E4,6.6084E4,4.4098E4,7.6336E4,5.0712E4,1.3378E4,2.0629E4,8.755E3,1.3575E4,3.7542E4,2.8542E4,1.7539E4,2.6559E4,3.0596E4,4.574E4,1.8608E4,3.2104E4,6.737E3,6.641E3,5.931E3,1.4698E4,2.451E3,6.304E3,6.132E3,7.443E3,1.5198E4,2.2344E4,1.1402E4,1.714E4,9.564E3,7.975E3,1.4826E4,1.1733E4,1.0691E4,1.9905E4,2.5781E4,1.9959E4,7.397E3,1.1211E4,9.4E1,3.201E4,6.59E2,6.078E3,4.011E3,2.63E3,6.04E2,5.327E3,1.0213E4,4.485E3,3.96E2,2.055E3,1.536E3,4.768E3,5.95E2,5.537E3,3.585E3,3.858E3,3.428E3,1.177E4,7.495E3,1.4849E4,3.569E3,7.833E3,3.67E3,1.347E4,4.583E3,4.981E3,1.251E3,6.724E3,5.664E3,9.162E3,3.683E3,8.05E3,5.998E3,4.693E3,1.9886E4,1.9E1,1.5392E4,1.0389E4,8.18E2,1.9141E4,8.01E2,6.596E3,7.017E3,4.194E3,8.7E1,7E0,3.198E4,3E1,4.57E2,2.02E2,4.669E3,1.409E3,3.308E3,7.03E2,1.417E3,1.213E3,2.4E1,5.8E2,1.949E3,3.378E3,4.466E3,5.747E3,2.583E3,1.902E3,3.95E2,1E0,8.82E2,1.173E3,1.079E3,4.57E2,1.997E3,2.771E3,5.76E2,1.9E1,2.345E3,3.192E3,2.904E3,6.81E2,3.331E3,5.27E2],"tree_param":{"num_deleted":"0","num_feature":"22","num_nodes":"127","size_leaf_vector":"1"}},{"base_weights":[1.311069E-1,-5.814835E2,3.0461196E3,4.577318E2,-1.3782563E3,4.8953413E3,2.3010056E2,1.3900197E3,-1.0236738E3,-7.331996E2,-1.8157415E3,2.0370105E3,6.7552725E3,-1.3695854E3,1.260917E3,3.747534E2,2.91763E3,-1.7674362E3,-5.325428E2,-7.814629E1,-1.7524614E3,-3.6996025E1,-1.8844492E3,3.8524026E3,7.2443286E2,4.835872E3,9.315118E3,-8.9119525E2,-1.8537876E3,1.8554448E3,-1.114609E3,-1.6061917E2,1.8244717E3,9.542468E2,4.2176523E3,-2.1231294E3,-1.5814182E3,-1.227752E3,-1.0988463E1,-1.3188998E3,7.5773737E2,-2.15795E3,-1.4865581E3,-1.2125579E3,2.8973013E3,-2.1325093E3,-1.5285741E3,-1.4838041E3,4.7183857E3,1.5152316E3,-5.7468646E2,5.7332915E3,8.115397E2,8.318898E3,1.5044656E4,1.6810794E2,-1.1992733E3,-1.5697273E3,-2.1838042E3,1.1377909E3,4.374515E3,1.8714184E1,-1.6130532E3,-3.084281E2,1.24006E2,1.1784903E2,7.754229E2,7.589571E1,7.457479E2,2.9555127E2,1.4456147E3,-7.0504407E2,-5.974025E2,-3.2000586E2,-5.4967584E2,-2.0347243E2,-4.980202E2,-2.9299994E2,1.5832716E2,-4.8595282E2,-1.851539E2,-1.7223169E2,4.9710855E2,-5.979021E2,-6.5329675E2,-6.088497E2,-3.4088223E2,-8.1804443E2,-1.22534706E2,1.5249583E3,-2.1719585E2,-6.7201935E2,-5.92225E2,-3.2884827E2,-6.5005133E2,2.8928186E3,-5.5448505E2,1.2169592E3,2.6907566E3,1.9377533E2,7.926027E2,-1.6720749E1,-4.6481967E2,-4.0761838E2,1.9152467E3,4.690233E2,-5.2692676E2,2.7807603E3,1.1224528E3,3.8198096E3,6.760763E3,-1.0678934E2,5.878959E2,-5.1759186E2,-2.4899706E2,-3.4603662E2,-5.936735E2,6.8060034E2,-6.563436E2,-2.6478906E2,5.36286E2,2.0813254E3,1.00396063E3,1.20825836E2,-6.502595E2,-3.475883E2,-7.886099E2],"categories":[],"categories_nodes":[],"categories_segments":[],"categories_sizes":[],"default_left":[0,0,0,0,0,0,0,0,0,0,0,0,0,0,0,0,0,0,0,0,0,0,0,0,0,0,0,0,0,0,0,0,0,0,0,0,0,0,0,0,0,0,0,0,0,0,0,0,0,0,0,0,0,0,0,0,0,0,0,0,0,0,0,0,0,0,0,0,0,0,0,0,0,0,0,0,0,0,0,0,0,0,0,0,0,0,0,0,0,0,0,0,0,0,0,0,0,0,0,0,0,0,0,0,0,0,0,0,0,0,0,0,0,0,0,0,0,0,0,0,0,0,0,0,0,0,0],"id":3,"left_children":[1,3,5,7,9,11,13,15,17,19,21,23,25,27,29,31,33,35,37,39,41,43,45,47,49,51,53,55,57,59,61,63,65,67,69,71,73,75,77,79,81,83,85,87,89,91,93,95,97,99,101,103,105,107,109,111,113,115,117,119,121,123,125,-1,-1,-1,-1,-1,-1,-1,-1,-1,-1,-1,-1,-1,-1,-1,-1,-1,-1,-1,-1,-1,-1,-1,-1,-1,-1,-1,-1,-1,-1,-1,-1,-1,-1,-1,-1,-1,-1,-1,-1,-1,-1,-1,-1,-1,-1,-1,-1,-1,-1,-1,-1,-1,-1,-1,-1,-1,-1,-1,-1,-1,-1,-1,-1],"loss_changes":[5.200844E11,2.0410802E11,2.4510284E11,1.477456E11,3.9373308E10,1.5102758E11,3.0768445E10,1.0182838E11,1.5092621E10,3.7648486E10,1.0160603E10,2.6687439E10,8.4518896E10,1.6920822E9,1.6027619E10,3.0614335E10,6.690567E10,1.0839368E9,9.024111E9,3.5603444E10,2.375426E9,1.0672655E10,7.063175E9,2.1726003E10,6.6806477E9,3.5525427E10,4.1964667E10,1.2011625E9,3.3714483E8,1.6402803E10,1.2834796E9,1.4343617E10,1.1577766E10,1.1216616E10,3.0637162E10,1.6405709E8,1.3916877E9,2.5331835E9,7.3990584E9,2.9170545E9,2.4567271E10,2.4047616E7,2.532268E9,2.688625E9,7.0091156E9,7.9927706E8,9.072845E9,2.6822152E9,1.1341079E10,3.9575276E9,1.2447553E9,3.71393E10,3.4684902E9,2.7300102E10,1.8608521E10,7.799839E8,5.523891E8,3.3088717E8,3.4907136E7,9.277414E9,5.2783145E9,5.84397E8,7.25258E8,0E0,0E0,0E0,0E0,0E0,0E0,0E0,0E0,0E0,0E0,0E0,0E0,0E0,0E0,0E0,0E0,0E0,0E0,0E0,0E0,0E0,0E0,0E0,0E0,0E0,0E0,0E0,0E0,0E0,0E0,0E0,0E0,0E0,0E0,0E0,0E0,0E0,0E0,0E0,0E0,0E0,0E0,0E0,0E0,0E0,0E0,0E0,0E0,0E0,0E0,0E0,0E0,0E0,0E0,0E0,0E0,0E0,0E0,0E0,0E0,0E0,0E0,0E0,0E0],"parents":[2147483647,0,0,1,1,2,2,3,3,4,4,5,5,6,6,7,7,8,8,9,9,10,10,11,11,12,12,13,13,14,14,15,15,16,16,17,17,18,18,19,19,20,20,21,21,22,22,23,23,24,24,25,25,26,26,27,27,28,28,29,29,30,30,31,31,32,32,33,33,34,34,35,35,36,36,37,37,38,38,39,39,40,40,41,41,42,42,43,43,44,44,45,45,46,46,47,47,48,48,49,49,50,50,51,51,52,52,53,53,54,54,55,55,56,56,57,57,58,58,59,59,60,60,61,61,62,62],"right_children":[2,4,6,8,10,12,14,16,18,20,22,24,26,28,30,32,34,36,38,40,42,44,46,48,50,52,54,56,58,60,62,64,66,68,70,72,74,76,78,80,82,84,86,88,90,92,94,96,98,100,102,104,106,108,110,112,114,116,118,120,122,124,126,-1,-1,-1,-1,-1,-1,-1,-1,-1,-1,-1,-1,-1,-1,-1,-1,-1,-1,-1,-1,-1,-1,-1,-1,-1,-1,-1,-1,-1,-1,-1,-1,-1,-1,-1,-1,-1,-1,-1,-1,-1,-1,-1,-1,-1,-1,-1,-1,-1,-1,-1,-1,-1,-1,-1,-1,-1,-1,-1,-1,-1,-1,-1,-1],"split_conditions":[1.6377522E-1,2.7606659E-2,1E0,3.0007297E-2,4.0984828E-2,5E-1,5E-1,1.0389655E-1,5E-1,2.5653414E-2,2.0026088E-2,2.2518734E-2,6.25E-1,2.4133882E-2,3.2327425E-2,6.25E-1,5E-1,7.3856406E-2,8.672277E-2,5E-1,5E-1,1.6029687E-1,7.688058E-2,1.255666E-2,3.15264E-2,3.3148177E-2,4.1690043E-1,5.1207718E-2,2.6812086E-2,6.25E-1,2.0726407E-2,6.2162932E-2,5.8937144E-2,6.25E-1,5.416667E-1,4.6840444E-2,1.7948283E-2,2.451681E-2,5.416667E-1,6.2416667E-1,9.449509E-2,1.6057098E-2,9.059018E-2,3.3333334E-1,1E0,5.5711355E-2,1E0,2.948228E-1,2.583311E-1,6.2416667E-1,3.9336175E-2,1.255666E-2,4.3704987E-2,3.401858E-2,2.7929872E-1,6.225E-1,5.683333E-1,3.0784247E-2,3.0303031E-2,1.2587658E-1,5.6237545E-2,4.4730127E-2,4.0984828E-2,-3.084281E2,1.24006E2,1.1784903E2,7.754229E2,7.589571E1,7.457479E2,2.9555127E2,1.4456147E3,-7.0504407E2,-5.974025E2,-3.2000586E2,-5.4967584E2,-2.0347243E2,-4.980202E2,-2.9299994E2,1.5832716E2,-4.8595282E2,-1.851539E2,-1.7223169E2,4.9710855E2,-5.979021E2,-6.5329675E2,-6.088497E2,-3.4088223E2,-8.1804443E2,-1.22534706E2,1.5249583E3,-2.1719585E2,-6.7201935E2,-5.92225E2,-3.2884827E2,-6.5005133E2,2.8928186E3,-5.5448505E2,1.2169592E3,2.6907566E3,1.9377533E2,7.926027E2,-1.6720749E1,-4.6481967E2,-4.0761838E2,1.9152467E3,4.690233E2,-5.2692676E2,2.7807603E3,1.1224528E3,3.8198096E3,6.760763E3,-1.0678934E2,5.878959E2,-5.1759186E2,-2.4899706E2,-3.4603662E2,-5.936735E2,6.8060034E2,-6.563436E2,-2.6478906E2,5.36286E2,2.0813254E3,1.00396063E3,1.20825836E2,-6.502595E2,-3.475883E2,-7.886099E2],"split_indices":[4,20,10,21,20,8,8,4,8,21,4,20,12,20,20,12,8,4,13,8,8,13,4,20,20,20,13,21,19,12,19,4,4,12,12,4,20,19,12,12,13,19,4,3,10,4,10,4,4,12,20,20,20,20,4,12,12,20,0,13,21,20,20,0,0,0,0,0,0,0,0,0,0,0,0,0,0,0,0,0,0,0,0,0,0,0,0,0,0,0,0,0,0,0,0,0,0,0,0,0,0,0,0,0,0,0,0,0,0,0,0,0,0,0,0,0,0,0,0,0,0,0,0,0,0,0,0],"split_type":[0,0,0,0,0,0,0,0,0,0,0,0,0,0,0,0,0,0,0,0,0,0,0,0,0,0,0,0,0,0,0,0,0,0,0,0,0,0,0,0,0,0,0,0,0,0,0,0,0,0,0,0,0,0,0,0,0,0,0,0,0,0,0,0,0,0,0,0,0,0,0,0,0,0,0,0,0,0,0,0,0,0,0,0,0,0,0,0,0,0,0,0,0,0,0,0,0,0,0,0,0,0,0,0,0,0,0,0,0,0,0,0,0,0,0,0,0,0,0,0,0,0,0,0,0,0,0],"sum_hessian":[2.93567E5,2.465E5,4.7067E4,1.06975E5,1.39525E5,2.841E4,1.8657E4,6.5656E4,4.1319E4,5.6387E4,8.3138E4,1.12E4,1.721E4,7.311E3,1.1346E4,3.9443E4,2.6213E4,1.6432E4,2.4887E4,3.4327E4,2.206E4,3.092E3,8.0046E4,4.699E3,6.501E3,9.837E3,7.373E3,3.679E3,3.632E3,9.075E3,2.271E3,2.8806E4,1.0637E4,1.0443E4,1.577E4,5.639E3,1.0793E4,1.0667E4,1.422E4,1.3817E4,2.051E4,8.734E3,1.3326E4,2.208E3,8.84E2,4.7165E4,3.2881E4,6.56E2,4.043E3,4.041E3,2.46E3,8.043E3,1.794E3,6.283E3,1.09E3,8.29E2,2.85E3,1.955E3,1.677E3,7.064E3,2.011E3,6.94E2,1.577E3,1.147E4,1.7336E4,3.69E3,6.947E3,7.164E3,3.279E3,2.473E3,1.3297E4,2.065E3,3.574E3,3.538E3,7.255E3,4.698E3,5.969E3,5.092E3,9.128E3,9.669E3,4.148E3,8.267E3,1.2243E4,9.43E2,7.791E3,5.224E3,8.102E3,7.65E2,1.443E3,5.51E2,3.33E2,2.8085E4,1.908E4,1.9603E4,1.3278E4,2E1,6.36E2,3.5E3,5.43E2,2.282E3,1.759E3,1.606E3,8.54E2,6.76E2,7.367E3,1.388E3,4.06E2,5.202E3,1.081E3,8.35E2,2.55E2,6.42E2,1.87E2,1.174E3,1.676E3,9.71E2,9.84E2,1E0,1.676E3,1.719E3,5.345E3,5.74E2,1.437E3,5.91E2,1.03E2,1.091E3,4.86E2],"tree_param":{"num_deleted":"0","num_feature":"22","num_nodes":"127","size_leaf_vector":"1"}},{"base_weights":[1.5656188E-1,-4.8457022E2,1.994753E3,5.483931E2,-9.1799243E2,3.281131E3,1.4242243E1,5.7966766E1,2.1724214E3,-1.1708523E3,-7.0722466E1,5.750137E3,2.1273325E3,1.5821935E3,-4.8300745E2,-9.750877E2,5.409168E2,9.483421E2,3.4496824E3,-1.6285137E3,-9.61134E2,5.751424E2,-1.073509E3,3.248066E3,7.389417E3,3.081457E2,3.3059712E3,-2.0902408E2,2.683562E3,-7.330676E2,1.2752457E3,-1.5053314E3,-6.1321027E2,-2.825452E2,1.2465046E3,-1.5969028E2,1.6775825E3,1.6920219E3,4.6129897E3,-1.9213062E3,-1.5371061E3,-1.2759276E3,-4.7311932E2,-6.625408E2,1.3926543E3,1.3784924E3,-1.1734224E3,2.079989E3,5.179469E3,6.0419443E3,1.1714657E4,-1.7275914E2,2.3368157E3,2.917177E3,1.05464E4,6.702014E2,-7.090003E2,1.8099011E3,5.325345E3,-1.3688988E3,-3.2187448E2,-6.301155E2,2.3999343E3,-5.615953E2,-3.8968076E2,-3.322362E2,-1.4877905E0,-2.693354E2,3.7510193E1,6.2182556E2,-1.524402E1,-2.7497528E2,8.200885E1,5.538442E2,-1.2514656E3,6.8600885E2,-5.596739E1,1.5590448E3,5.8525073E2,-6.5924286E2,-5.235004E2,-5.257165E2,-4.135017E2,-4.3040356E2,-2.929589E2,-3.5632782E2,1.1927825E0,-3.359551E2,-5.5092106E1,9.2396484E1,6.4269324E2,-2.2956305E2,1.0295555E3,-2.0626366E2,-4.7628336E2,4.1670114E2,1.1536896E3,1.4440688E3,3.5618228E3,1.3904603E3,2.537409E3,4.570315E2,4.0002095E3,1.1275367E2,-3.841995E2,9.2698236E2,2.2563487E2,5.4122003E2,1.4312767E3,2.720141E3,5.0078716E3,-2.2732518E2,3.5774432E2,-2.9020449E1,-3.2367514E2,3.9727704E2,1.2131835E3,-2.6269525E2,1.8220878E3,-3.687441E2,-4.861358E2,8.032049E1,-3.5265594E2,-6.646406E0,-4.3381345E2,9.9759546E2,1.9131891E2],"categories":[],"categories_nodes":[],"categories_segments":[],"categories_sizes":[],"default_left":[0,0,0,0,0,0,0,0,0,0,0,0,0,0,0,0,0,0,0,0,0,0,0,0,0,0,0,0,0,0,0,0,0,0,0,0,0,0,0,0,0,0,0,0,0,0,0,0,0,0,0,0,0,0,0,0,0,0,0,0,0,0,0,0,0,0,0,0,0,0,0,0,0,0,0,0,0,0,0,0,0,0,0,0,0,0,0,0,0,0,0,0,0,0,0,0,0,0,0,0,0,0,0,0,0,0,0,0,0,0,0,0,0,0,0,0,0,0,0,0,0,0,0,0,0,0,0],"id":4,"left_children":[1,3,5,7,9,11,13,15,17,19,21,23,25,27,29,31,33,35,37,39,41,43,45,47,49,51,53,55,57,59,61,63,65,67,69,71,73,75,77,79,81,83,85,87,89,91,93,95,97,99,101,103,105,107,109,111,113,115,117,119,121,123,125,-1,-1,-1,-1,-1,-1,-1,-1,-1,-1,-1,-1,-1,-1,-1,-1,-1,-1,-1,-1,-1,-1,-1,-1,-1,-1,-1,-1,-1,-1,-1,-1,-1,-1,-1,-1,-1,-1,-1,-1,-1,-1,-1,-1,-1,-1,-1,-1,-1,-1,-1,-1,-1,-1,-1,-1,-1,-1,-1,-1,-1,-1,-1,-1],"loss_changes":[2.838326E11,1.057378E11,1.462244E11,5.55988E10,3.5642704E10,9.91095E10,1.7621934E10,2.6750783E10,2.5310847E10,1.2296241E10,2.476731E10,4.5425754E10,5.0847834E10,1.0736486E10,7.5456563E9,3.276633E9,2.1229253E10,6.681803E9,1.619234E10,1.0745938E9,1.3498024E10,2.3535874E10,3.6717752E9,9.888674E9,3.89428E10,9.097848E9,4.0480424E10,9.1174906E8,7.768396E9,3.927576E9,4.580971E9,5.2184883E8,3.0525327E9,4.2281554E9,2.1091985E10,1.0763368E9,4.924669E9,3.5272468E9,7.398908E9,4.6237286E8,1.04648704E9,2.5373082E9,1.1747826E10,2.0262543E9,1.1389622E10,2.5864778E9,2.895825E9,3.3326684E9,3.9912366E9,1.7319248E10,2.6203587E10,4.5827026E9,2.1304207E9,2.8175688E10,6.5133036E9,5.6173786E8,2.993118E8,2.7439094E9,3.889066E9,2.0542362E8,4.5930854E9,3.9383405E8,2.1895613E9,0E0,0E0,0E0,0E0,0E0,0E0,0E0,0E0,0E0,0E0,0E0,0E0,0E0,0E0,0E0,0E0,0E0,0E0,0E0,0E0,0E0,0E0,0E0,0E0,0E0,0E0,0E0,0E0,0E0,0E0,0E0,0E0,0E0,0E0,0E0,0E0,0E0,0E0,0E0,0E0,0E0,0E0,0E0,0E0,0E0,0E0,0E0,0E0,0E0,0E0,0E0,0E0,0E0,0E0,0E0,0E0,0E0,0E0,0E0,0E0,0E0,0E0,0E0,0E0],"parents":[2147483647,0,0,1,1,2,2,3,3,4,4,5,5,6,6,7,7,8,8,9,9,10,10,11,11,12,12,13,13,14,14,15,15,16,16,17,17,18,18,19,19,20,20,21,21,22,22,23,23,24,24,25,25,26,26,27,27,28,28,29,29,30,30,31,31,32,32,33,33,34,34,35,35,36,36,37,37,38,38,39,39,40,40,41,41,42,42,43,43,44,44,45,45,46,46,47,47,48,48,49,49,50,50,51,51,52,52,53,53,54,54,55,55,56,56,57,57,58,58,59,59,60,60,61,61,62,62],"right_children":[2,4,6,8,10,12,14,16,18,20,22,24,26,28,30,32,34,36,38,40,42,44,46,48,50,52,54,56,58,60,62,64,66,68,70,72,74,76,78,80,82,84,86,88,90,92,94,96,98,100,102,104,106,108,110,112,114,116,118,120,122,124,126,-1,-1,-1,-1,-1,-1,-1,-1,-1,-1,-1,-1,-1,-1,-1,-1,-1,-1,-1,-1,-1,-1,-1,-1,-1,-1,-1,-1,-1,-1,-1,-1,-1,-1,-1,-1,-1,-1,-1,-1,-1,-1,-1,-1,-1,-1,-1,-1,-1,-1,-1,-1,-1,-1,-1,-1,-1,-1,-1,-1,-1,-1,-1,-1],"split_conditions":[2.158719E-1,2.2216106E-2,1E0,6.25E-1,6.25E-1,2.168864E-2,1.9920835E-2,5.416667E-1,9.624825E-2,5.416667E-1,4.403457E-2,5E-1,5E-1,5E-1,2.2869419E-1,5E-1,8.426835E-2,5E-1,5E-1,1.4084507E-2,9.220307E-2,5E-1,2.0026088E-2,6.2583333E-1,2.167991E-1,2.0732334E-1,2.6780686E-1,2.1947822E-2,2.133717E-1,5E-1,5E-1,6.4983636E-2,9.624825E-2,5E-1,1E0,4.0848527E-2,6.350405E-1,1E0,1.8542124E-2,3.4846958E-2,7.363254E-2,9.72417E-2,5E-1,1.02559604E-1,8.345021E-2,5.6959894E-2,5.7976585E-2,1.9704115E-1,5.1081115E-1,6.25E-1,1.255666E-2,3.640668E-2,3.0563006E-2,6.2416667E-1,3.2204038E-1,5.416667E-1,1.5631465E-2,6.25E-1,1.3054803E-2,2.9788988E-2,2.8656011E-2,2.8656011E-2,3.0210875E-2,-5.615953E2,-3.8968076E2,-3.322362E2,-1.4877905E0,-2.693354E2,3.7510193E1,6.2182556E2,-1.524402E1,-2.7497528E2,8.200885E1,5.538442E2,-1.2514656E3,6.8600885E2,-5.596739E1,1.5590448E3,5.8525073E2,-6.5924286E2,-5.235004E2,-5.257165E2,-4.135017E2,-4.3040356E2,-2.929589E2,-3.5632782E2,1.1927825E0,-3.359551E2,-5.5092106E1,9.2396484E1,6.4269324E2,-2.2956305E2,1.0295555E3,-2.0626366E2,-4.7628336E2,4.1670114E2,1.1536896E3,1.4440688E3,3.5618228E3,1.3904603E3,2.537409E3,4.570315E2,4.0002095E3,1.1275367E2,-3.841995E2,9.2698236E2,2.2563487E2,5.4122003E2,1.4312767E3,2.720141E3,5.0078716E3,-2.2732518E2,3.5774432E2,-2.9020449E1,-3.2367514E2,3.9727704E2,1.2131835E3,-2.6269525E2,1.8220878E3,-3.687441E2,-4.861358E2,8.032049E1,-3.5265594E2,-6.646406E0,-4.3381345E2,9.9759546E2,1.9131891E2],"split_indices":[13,20,10,12,12,20,20,12,13,12,20,8,8,8,4,8,13,8,8,6,4,8,4,12,4,4,4,19,4,8,8,13,13,8,10,13,4,10,19,20,13,13,8,13,13,14,20,4,13,12,20,20,20,12,4,12,20,12,19,19,19,19,19,0,0,0,0,0,0,0,0,0,0,0,0,0,0,0,0,0,0,0,0,0,0,0,0,0,0,0,0,0,0,0,0,0,0,0,0,0,0,0,0,0,0,0,0,0,0,0,0,0,0,0,0,0,0,0,0,0,0,0,0,0,0,0,0],"split_type":[0,0,0,0,0,0,0,0,0,0,0,0,0,0,0,0,0,0,0,0,0,0,0,0,0,0,0,0,0,0,0,0,0,0,0,0,0,0,0,0,0,0,0,0,0,0,0,0,0,0,0,0,0,0,0,0,0,0,0,0,0,0,0,0,0,0,0,0,0,0,0,0,0,0,0,0,0,0,0,0,0,0,0,0,0,0,0,0,0,0,0,0,0,0,0,0,0,0,0,0,0,0,0,0,0,0,0,0,0,0,0,0,0,0,0,0,0,0,0,0,0,0,0,0,0,0,0],"sum_hessian":[2.93567E5,2.36173E5,5.7394E4,6.9806E4,1.66367E5,3.4794E4,2.26E4,5.3616E4,1.619E4,1.28128E5,3.8239E4,1.108E4,2.3714E4,5.441E3,1.7159E4,1.708E4,3.6536E4,8.268E3,7.922E3,4.0261E4,8.7867E4,2.3259E4,1.498E4,4.387E3,6.693E3,9.324E3,1.439E4,2.072E3,3.369E3,1.5023E4,2.136E3,6.927E3,1.0153E4,1.686E4,1.9676E4,3.282E3,4.986E3,3.156E3,4.766E3,9.574E3,3.0687E4,5.3412E4,3.4455E4,9.252E3,1.4007E4,5.86E2,1.4394E4,2.735E3,1.652E3,5.105E3,1.588E3,7.538E3,1.786E3,1.3658E4,7.32E2,7.51E2,1.321E3,2.533E3,8.36E2,5.899E3,9.124E3,7.93E2,1.343E3,2.492E3,4.435E3,5.601E3,4.552E3,6.718E3,1.0142E4,1.202E4,7.656E3,1.194E3,2.088E3,4.847E3,1.39E2,2.397E3,7.59E2,3.908E3,8.58E2,3.726E3,5.848E3,1.3021E4,1.7666E4,3.4902E4,1.851E4,1.3793E4,2.0662E4,4.732E3,4.52E3,5.725E3,8.282E3,2.87E2,2.99E2,6.625E3,7.769E3,1.967E3,7.68E2,1.568E3,8.4E1,3.228E3,1.877E3,2.18E2,1.37E3,5.042E3,2.496E3,1.21E3,5.76E2,8.535E3,5.123E3,5.92E2,1.4E2,2.01E2,5.5E2,4.98E2,8.23E2,2.082E3,4.51E2,9E1,7.46E2,3.796E3,2.103E3,5.397E3,3.727E3,4.55E2,3.38E2,8.8E2,4.63E2],"tree_param":{"num_deleted":"0","num_feature":"22","num_nodes":"127","size_leaf_vector":"1"}},{"base_weights":[1.9935995E-1,-5.912806E2,9.512416E2,2.8839844E2,-7.6415717E2,1.7010725E3,-3.3058835E2,7.539522E2,-6.2191284E2,-5.604808E2,-1.1233949E3,4.517098E2,2.519404E3,4.858755E2,-6.8071466E2,-9.107422E1,1.3144526E3,-1.1121206E3,-3.713784E2,-1.056666E3,-2.2713759E2,-1.0281652E3,-1.2970183E3,1.925628E3,-3.1841927E1,1.2135856E2,3.149804E3,-5.227285E2,1.1335547E3,-3.9875684E2,-1.3154929E3,-8.822756E2,1.3390662E2,4.9545708E1,1.994007E3,-1.49747E3,-9.7561865E2,-8.862641E2,-7.5784163E0,-7.8232135E2,-1.2890902E3,-8.3768915E2,1.1782192E2,-8.6308185E2,-1.1851726E3,-1.3057058E3,1.3050134E3,2.2553179E3,-1.489161E3,-2.8697125E2,1.4710397E3,-7.250856E2,3.569552E3,2.5247036E3,5.900798E3,-1.9364135E3,-4.0793875E2,-2.5057117E3,1.3992184E3,-6.115043E2,6.895872E2,-1.3750934E3,-3.1058826E2,-3.4706274E2,9.5656944E1,-2.0047206E2,1.1295683E2,-3.568652E2,1.3358923E2,1.3252892E2,7.288817E2,-5.225454E2,-4.163693E2,-2.4083083E2,-3.9524832E2,-1.7052254E2,-3.8291373E2,1.0320746E2,-1.6896404E2,-3.7495728E2,-1.6604295E2,-3.8962326E2,2.1607698E3,-3.78521E2,-1.8098296E2,2.773325E1,3.5390342E3,-3.6101733E2,-2.2181833E2,-3.7287036E2,-3.3002856E2,-4.1070248E2,-3.3363745E2,1.2992595E2,2.0046649E3,4.8592697E2,1.2542384E3,-1.9076143E2,-1.1277268E3,7.0840764E0,-3.250235E2,-1.1453436E2,5.882123E2,-6.806804E2,-1.08280685E2,8.54118E2,2.111011E3,1.486709E3,5.6285034E2,-5.376064E2,2.0965002E3,4.2871118E2,-5.989422E2,1.1689497E2,-2.1269382E2,-1.0478257E3,-5.0508694E2,2.9311194E2,1.2019972E3,-1.0111192E2,-3.1460074E2,-1.5637277E2,4.3266473E2,-3.2615308E2,-4.5881622E2,-1.7250317E2,4.623302E2],"categories":[],"categories_nodes":[],"categories_segments":[],"categories_sizes":[],"default_left":[0,0,0,0,0,0,0,0,0,0,0,0,0,0,0,0,0,0,0,0,0,0,0,0,0,0,0,0,0,0,0,0,0,0,0,0,0,0,0,0,0,0,0,0,0,0,0,0,0,0,0,0,0,0,0,0,0,0,0,0,0,0,0,0,0,0,0,0,0,0,0,0,0,0,0,0,0,0,0,0,0,0,0,0,0,0,0,0,0,0,0,0,0,0,0,0,0,0,0,0,0,0,0,0,0,0,0,0,0,0,0,0,0,0,0,0,0,0,0,0,0,0,0,0,0,0,0],"id":5,"left_children":[1,3,5,7,9,11,13,15,17,19,21,23,25,27,29,31,33,35,37,39,41,43,45,47,49,51,53,55,57,59,61,63,65,67,69,71,73,75,77,79,81,83,85,87,89,91,93,95,97,99,101,103,105,107,109,111,113,115,117,119,121,123,125,-1,-1,-1,-1,-1,-1,-1,-1,-1,-1,-1,-1,-1,-1,-1,-1,-1,-1,-1,-1,-1,-1,-1,-1,-1,-1,-1,-1,-1,-1,-1,-1,-1,-1,-1,-1,-1,-1,-1,-1,-1,-1,-1,-1,-1,-1,-1,-1,-1,-1,-1,-1,-1,-1,-1,-1,-1,-1,-1,-1,-1,-1,-1,-1],"loss_changes":[1.6513914E11,2.7525972E10,1.0819689E11,1.2599585E10,1.1067671E10,7.261228E10,1.1877185E10,9.316575E9,1.235095E9,1.5967472E10,9.0362675E8,2.00345E10,6.487389E10,8.1466435E9,5.203877E9,1.3965684E9,1.0165209E10,1.7748762E8,1.2473265E9,2.472665E9,1.2162516E10,9.152512E8,4.398633E8,7.821058E9,8.116468E9,2.6078282E10,5.8420396E10,7.906331E8,7.345542E9,4.6627594E9,5.351936E8,5.7328525E8,1.1891471E9,2.0277379E9,5.200587E9,2.1357568E7,1.4756122E8,3.411433E8,7.6269594E8,1.9032525E9,1.7308959E9,2.0715745E9,1.0935545E10,7.24609E8,8.760525E7,2.352128E8,3.0186035E8,7.7432914E9,1.1829962E9,4.476294E9,2.7878712E9,4.0323507E9,4.391252E9,4.3647943E10,5.264443E10,7.683264E7,1.0836374E9,4.1363123E8,7.7875814E9,2.020695E9,3.0016786E9,3.733627E8,2.4667931E8,0E0,0E0,0E0,0E0,0E0,0E0,0E0,0E0,0E0,0E0,0E0,0E0,0E0,0E0,0E0,0E0,0E0,0E0,0E0,0E0,0E0,0E0,0E0,0E0,0E0,0E0,0E0,0E0,0E0,0E0,0E0,0E0,0E0,0E0,0E0,0E0,0E0,0E0,0E0,0E0,0E0,0E0,0E0,0E0,0E0,0E0,0E0,0E0,0E0,0E0,0E0,0E0,0E0,0E0,0E0,0E0,0E0,0E0,0E0,0E0,0E0,0E0,0E0,0E0],"parents":[2147483647,0,0,1,1,2,2,3,3,4,4,5,5,6,6,7,7,8,8,9,9,10,10,11,11,12,12,13,13,14,14,15,15,16,16,17,17,18,18,19,19,20,20,21,21,22,22,23,23,24,24,25,25,26,26,27,27,28,28,29,29,30,30,31,31,32,32,33,33,34,34,35,35,36,36,37,37,38,38,39,39,40,40,41,41,42,42,43,43,44,44,45,45,46,46,47,47,48,48,49,49,50,50,51,51,52,52,53,53,54,54,55,55,56,56,57,57,58,58,59,59,60,60,61,61,62,62],"right_children":[2,4,6,8,10,12,14,16,18,20,22,24,26,28,30,32,34,36,38,40,42,44,46,48,50,52,54,56,58,60,62,64,66,68,70,72,74,76,78,80,82,84,86,88,90,92,94,96,98,100,102,104,106,108,110,112,114,116,118,120,122,124,126,-1,-1,-1,-1,-1,-1,-1,-1,-1,-1,-1,-1,-1,-1,-1,-1,-1,-1,-1,-1,-1,-1,-1,-1,-1,-1,-1,-1,-1,-1,-1,-1,-1,-1,-1,-1,-1,-1,-1,-1,-1,-1,-1,-1,-1,-1,-1,-1,-1,-1,-1,-1,-1,-1,-1,-1,-1,-1,-1,-1,-1,-1,-1,-1],"split_conditions":[1.1357391E-1,1.8584577E-2,3.5312407E-2,1.7092329E-2,1.5435066E-2,5E-1,2.1048633E-2,5E-1,5.853392E-2,5E-1,3.091743E-2,1.9674037E-2,1.4084507E-2,5E-1,3.1532086E-2,1.4084507E-2,5.9541978E-2,3.4138907E-2,5E-1,3.7317857E-2,6.048387E-2,3.8562633E-2,3.2778168E-1,6.350405E-1,2.101459E-1,1E0,2.0732334E-1,1.3054803E-2,7.817832E-3,2.0450078E-1,2.5046825E-1,1E0,4.306919E-2,3.2929238E-2,1.4084507E-2,2.5671216E-2,3.1532086E-2,2.9387519E-2,3.0402403E-2,6.124357E-2,3.1895292E-1,4.522755E-2,3.0130902E-1,6.0550038E-2,6.1703976E-2,6.1703976E-2,6.2916666E-1,1.9482341E-1,2.9082775E-1,3.6185216E-2,1.4084507E-2,5.416667E-1,2.133717E-1,1.9558437E-2,1.255666E-2,2.948228E-1,2.1535471E-2,1.5275311E-1,2.2425872E-1,3.401858E-2,5E-1,8.386981E-2,3.2204038E-1,-3.4706274E2,9.5656944E1,-2.0047206E2,1.1295683E2,-3.568652E2,1.3358923E2,1.3252892E2,7.288817E2,-5.225454E2,-4.163693E2,-2.4083083E2,-3.9524832E2,-1.7052254E2,-3.8291373E2,1.0320746E2,-1.6896404E2,-3.7495728E2,-1.6604295E2,-3.8962326E2,2.1607698E3,-3.78521E2,-1.8098296E2,2.773325E1,3.5390342E3,-3.6101733E2,-2.2181833E2,-3.7287036E2,-3.3002856E2,-4.1070248E2,-3.3363745E2,1.2992595E2,2.0046649E3,4.8592697E2,1.2542384E3,-1.9076143E2,-1.1277268E3,7.0840764E0,-3.250235E2,-1.1453436E2,5.882123E2,-6.806804E2,-1.08280685E2,8.54118E2,2.111011E3,1.486709E3,5.6285034E2,-5.376064E2,2.0965002E3,4.2871118E2,-5.989422E2,1.1689497E2,-2.1269382E2,-1.0478257E3,-5.0508694E2,2.9311194E2,1.2019972E3,-1.0111192E2,-3.1460074E2,-1.5637277E2,4.3266473E2,-3.2615308E2,-4.5881622E2,-1.7250317E2,4.623302E2],"split_indices":[4,20,21,19,19,8,20,8,4,8,19,20,6,8,19,6,4,4,8,20,13,20,13,4,4,5,4,19,19,4,4,5,13,4,6,4,19,19,19,13,14,4,13,4,20,20,12,4,18,20,6,12,4,20,20,4,19,11,4,20,8,21,4,0,0,0,0,0,0,0,0,0,0,0,0,0,0,0,0,0,0,0,0,0,0,0,0,0,0,0,0,0,0,0,0,0,0,0,0,0,0,0,0,0,0,0,0,0,0,0,0,0,0,0,0,0,0,0,0,0,0,0,0,0,0,0,0],"split_type":[0,0,0,0,0,0,0,0,0,0,0,0,0,0,0,0,0,0,0,0,0,0,0,0,0,0,0,0,0,0,0,0,0,0,0,0,0,0,0,0,0,0,0,0,0,0,0,0,0,0,0,0,0,0,0,0,0,0,0,0,0,0,0,0,0,0,0,0,0,0,0,0,0,0,0,0,0,0,0,0,0,0,0,0,0,0,0,0,0,0,0,0,0,0,0,0,0,0,0,0,0,0,0,0,0,0,0,0,0,0,0,0,0,0,0,0,0,0,0,0,0,0,0,0,0,0,0],"sum_hessian":[2.93567E5,1.80999E5,1.12568E5,2.9728E4,1.51271E5,7.1022E4,4.1546E4,1.9669E4,1.0059E4,9.6539E4,5.4732E4,2.8109E4,4.2913E4,1.2469E4,2.9077E4,7.844E3,1.1825E4,3.401E3,6.658E3,3.8793E4,5.7746E4,3.535E4,1.9382E4,6.943E3,2.1166E4,8.933E3,3.398E4,4.876E3,7.593E3,2.0135E4,8.942E3,1.736E3,6.108E3,4.133E3,7.692E3,8.87E2,2.514E3,2.756E3,3.902E3,1.7794E4,2.0999E4,2.0847E4,3.6899E4,1.7235E4,1.8115E4,1.9318E4,6.4E1,6.332E3,6.11E2,1.8095E4,3.071E3,7.173E3,1.76E3,2.769E4,6.29E3,3.65E2,4.511E3,5.16E2,7.077E3,1.6843E4,3.292E3,8.441E3,5.01E2,1.413E3,3.23E2,1.418E3,4.69E3,1E3,3.133E3,1.686E3,6.006E3,2.7E2,6.17E2,1.672E3,8.42E2,1.52E3,1.236E3,2.39E3,1.512E3,5.846E3,1.1948E4,2.0976E4,2.3E1,7.42E3,1.3427E4,3.682E4,7.9E1,4.592E3,1.2643E4,1.0784E4,7.331E3,1.4553E4,4.765E3,5.6E1,8E0,4.762E3,1.57E3,4.45E2,1.66E2,1.3019E4,5.076E3,6.42E2,2.429E3,1.368E3,5.805E3,1.458E3,3.02E2,5.83E3,2.186E4,7.79E2,5.511E3,6E0,3.59E2,1.236E3,3.275E3,2.33E2,2.83E2,6.092E3,9.85E2,1.0348E4,6.495E3,1.262E3,2.03E3,2.948E3,5.493E3,4.39E2,6.2E1],"tree_param":{"num_deleted":"0","num_feature":"22","num_nodes":"127","size_leaf_vector":"1"}},{"base_weights":[1.6630004E-1,-3.665262E2,8.515321E2,-5.385678E2,2.1721635E2,2.9163284E2,2.273072E3,-1.9289044E2,-7.366556E2,6.436878E2,-5.0481027E2,-7.9342004E2,7.0839514E2,3.7845613E3,1.3829961E3,-7.6566815E2,7.7075066E1,-9.468453E2,-6.401938E2,-2.3807E1,1.0844712E3,-8.9920825E2,-2.4361877E2,-1.3460275E3,-6.0889215E2,1.4815153E3,4.131333E1,2.940136E3,6.3132866E3,1.9987118E3,7.6083305E1,-1.2298839E3,-6.029656E2,-7.1222125E2,2.9603033E2,-1.1080901E3,-8.328339E2,-4.5368298E2,-8.362529E2,7.608283E2,-2.3119478E2,1.903088E2,1.5252714E3,3.968505E3,-9.1178906E2,1.7687303E2,-7.8318585E2,-9.957527E2,-1.9386362E3,-9.426012E1,-8.4830786E2,2.0392551E3,4.687655E1,4.660818E2,-5.5901843E2,1.7231744E3,3.7331697E3,6.942553E3,-9.3016144E2,8.062122E2,2.7715142E3,4.484543E3,-1.4453938E2,-3.9342245E2,-6.90046E1,-2.9030765E2,-1.3385338E2,-2.89023E2,8.801824E1,1.720098E2,-1.5134216E2,-3.16437E2,-6.214162E2,-2.4829735E2,-5.5900085E2,-2.3790303E2,-6.3932354E1,8.499786E2,-2.539177E2,2.987979E2,-7.1638135E2,-1.6599718E2,2.3521357E1,7.997223E1,-1.3894746E3,5.4966064E2,-4.9636402E1,6.274339E2,3.7969946E3,-3.0831055E2,-2.1821886E2,1.613519E2,-3.214676E2,5.1962714E2,-2.8826938E2,-3.169438E2,-1.0267901E2,-8.217254E2,-4.2946057E2,-1.8927448E2,7.7641815E1,-2.72359E2,2.2808635E2,2.3430527E2,8.567715E2,1.3481778E2,-2.0205507E2,-8.91779E1,2.897321E2,-9.748569E1,-3.7131387E2,8.7842E2,3.113149E2,4.721381E2,1.266124E3,1.7313207E3,3.3211052E3,-4.585258E2,6.3097363E3,3.6355347E2,-1.630163E2,7.581041E2,2.3250044E3,7.556616E1,2.383715E3,1.113801E2,-2.7723438E2],"categories":[],"categories_nodes":[],"categories_segments":[],"categories_sizes":[],"default_left":[0,0,0,0,0,0,0,0,0,0,0,0,0,0,0,0,0,0,0,0,0,0,0,0,0,0,0,0,0,0,0,0,0,0,0,0,0,0,0,0,0,0,0,0,0,0,0,0,0,0,0,0,0,0,0,0,0,0,0,0,0,0,0,0,0,0,0,0,0,0,0,0,0,0,0,0,0,0,0,0,0,0,0,0,0,0,0,0,0,0,0,0,0,0,0,0,0,0,0,0,0,0,0,0,0,0,0,0,0,0,0,0,0,0,0,0,0,0,0,0,0,0,0,0,0,0,0],"id":6,"left_children":[1,3,5,7,9,11,13,15,17,19,21,23,25,27,29,31,33,35,37,39,41,43,45,47,49,51,53,55,57,59,61,63,65,67,69,71,73,75,77,79,81,83,85,87,89,91,93,95,97,99,101,103,105,107,109,111,113,115,117,119,121,123,125,-1,-1,-1,-1,-1,-1,-1,-1,-1,-1,-1,-1,-1,-1,-1,-1,-1,-1,-1,-1,-1,-1,-1,-1,-1,-1,-1,-1,-1,-1,-1,-1,-1,-1,-1,-1,-1,-1,-1,-1,-1,-1,-1,-1,-1,-1,-1,-1,-1,-1,-1,-1,-1,-1,-1,-1,-1,-1,-1,-1,-1,-1,-1,-1],"loss_changes":[9.1649155E10,2.060704E10,7.0341075E10,1.0851893E10,1.4383136E10,2.8673335E10,3.3591951E10,8.927634E9,2.04211E9,8.639814E9,1.7865482E9,1.7934705E9,2.3626248E10,1.9743834E10,1.264872E10,1.3961708E9,6.781864E9,5.816586E8,2.5249485E9,1.9007896E9,6.9705933E9,4.267863E8,2.3678953E9,9.12234E8,1.6254428E9,1.6978395E10,6.2715244E9,6.6913034E9,1.0562929E10,9.844703E9,4.897721E9,3.9088077E8,7.828255E8,2.1529344E9,6.820386E9,6.715996E8,9.749914E7,2.889173E9,1.2550287E9,1.8106277E9,9.2145766E8,2.1492214E9,6.147617E9,2.6707603E8,1.4657997E8,2.6440435E9,2.0448773E9,1.0956365E8,6.597386E8,7.940621E8,8.632786E8,1.5697543E10,1.7230138E9,5.4941015E9,1.6185344E9,2.2599363E9,4.413407E9,1.0240877E10,2.4760568E9,2.301556E9,7.87182E9,3.5139886E9,1.9288617E9,0E0,0E0,0E0,0E0,0E0,0E0,0E0,0E0,0E0,0E0,0E0,0E0,0E0,0E0,0E0,0E0,0E0,0E0,0E0,0E0,0E0,0E0,0E0,0E0,0E0,0E0,0E0,0E0,0E0,0E0,0E0,0E0,0E0,0E0,0E0,0E0,0E0,0E0,0E0,0E0,0E0,0E0,0E0,0E0,0E0,0E0,0E0,0E0,0E0,0E0,0E0,0E0,0E0,0E0,0E0,0E0,0E0,0E0,0E0,0E0,0E0,0E0,0E0,0E0],"parents":[2147483647,0,0,1,1,2,2,3,3,4,4,5,5,6,6,7,7,8,8,9,9,10,10,11,11,12,12,13,13,14,14,15,15,16,16,17,17,18,18,19,19,20,20,21,21,22,22,23,23,24,24,25,25,26,26,27,27,28,28,29,29,30,30,31,31,32,32,33,33,34,34,35,35,36,36,37,37,38,38,39,39,40,40,41,41,42,42,43,43,44,44,45,45,46,46,47,47,48,48,49,49,50,50,51,51,52,52,53,53,54,54,55,55,56,56,57,57,58,58,59,59,60,60,61,61,62,62],"right_children":[2,4,6,8,10,12,14,16,18,20,22,24,26,28,30,32,34,36,38,40,42,44,46,48,50,52,54,56,58,60,62,64,66,68,70,72,74,76,78,80,82,84,86,88,90,92,94,96,98,100,102,104,106,108,110,112,114,116,118,120,122,124,126,-1,-1,-1,-1,-1,-1,-1,-1,-1,-1,-1,-1,-1,-1,-1,-1,-1,-1,-1,-1,-1,-1,-1,-1,-1,-1,-1,-1,-1,-1,-1,-1,-1,-1,-1,-1,-1,-1,-1,-1,-1,-1,-1,-1,-1,-1,-1,-1,-1,-1,-1,-1,-1,-1,-1,-1,-1,-1,-1,-1,-1,-1,-1,-1],"split_conditions":[1.6993922E-1,6.25E-1,6.25E-1,2.42367E-2,3.832302E-2,5.416667E-1,2.2944655E-2,5.416667E-1,5.416667E-1,5E-1,5E-1,1.4084507E-2,2.5001654E-2,2.0732334E-1,3.7317857E-2,1.4084507E-2,1.4084507E-2,2.805128E-2,4.403457E-2,1.7160852E-2,5.896447E-2,2.5E-1,5.869184E-2,1.4159793E-1,1.8791947E-1,2.0911396E-2,3.7317857E-2,5E-1,6.350405E-1,5E-1,2.0026088E-2,1E0,3.651275E-2,1E0,2.1434015E-2,1.4159793E-1,2.3584084E-1,7.199626E-2,2.5E-1,3.2204038E-1,9.603369E-2,3.2204038E-1,2.173171E-2,1.5548098E-1,6.1703976E-2,1E0,2.0026088E-2,1E0,2.9741402E-3,5E-1,2.7929872E-1,5E-1,3.2650262E-2,5E-1,4.6644294E-1,1.7018808E-2,1.4084507E-2,2.7929872E-1,5.659771E-1,1.4001196E-2,2.7929872E-1,5E-1,4.7263935E-2,-3.9342245E2,-6.90046E1,-2.9030765E2,-1.3385338E2,-2.89023E2,8.801824E1,1.720098E2,-1.5134216E2,-3.16437E2,-6.214162E2,-2.4829735E2,-5.5900085E2,-2.3790303E2,-6.3932354E1,8.499786E2,-2.539177E2,2.987979E2,-7.1638135E2,-1.6599718E2,2.3521357E1,7.997223E1,-1.3894746E3,5.4966064E2,-4.9636402E1,6.274339E2,3.7969946E3,-3.0831055E2,-2.1821886E2,1.613519E2,-3.214676E2,5.1962714E2,-2.8826938E2,-3.169438E2,-1.0267901E2,-8.217254E2,-4.2946057E2,-1.8927448E2,7.7641815E1,-2.72359E2,2.2808635E2,2.3430527E2,8.567715E2,1.3481778E2,-2.0205507E2,-8.91779E1,2.897321E2,-9.748569E1,-3.7131387E2,8.7842E2,3.113149E2,4.721381E2,1.266124E3,1.7313207E3,3.3211052E3,-4.585258E2,6.3097363E3,3.6355347E2,-1.630163E2,7.581041E2,2.3250044E3,7.556616E1,2.383715E3,1.113801E2,-2.7723438E2],"split_indices":[13,12,12,20,20,12,20,12,12,8,8,6,20,4,20,6,6,21,20,20,13,9,20,4,18,19,20,8,4,8,4,5,14,5,19,4,20,13,9,4,4,4,19,18,20,10,4,5,19,8,4,8,19,8,18,20,6,4,13,19,4,8,20,0,0,0,0,0,0,0,0,0,0,0,0,0,0,0,0,0,0,0,0,0,0,0,0,0,0,0,0,0,0,0,0,0,0,0,0,0,0,0,0,0,0,0,0,0,0,0,0,0,0,0,0,0,0,0,0,0,0,0,0,0,0,0,0],"split_type":[0,0,0,0,0,0,0,0,0,0,0,0,0,0,0,0,0,0,0,0,0,0,0,0,0,0,0,0,0,0,0,0,0,0,0,0,0,0,0,0,0,0,0,0,0,0,0,0,0,0,0,0,0,0,0,0,0,0,0,0,0,0,0,0,0,0,0,0,0,0,0,0,0,0,0,0,0,0,0,0,0,0,0,0,0,0,0,0,0,0,0,0,0,0,0,0,0,0,0,0,0,0,0,0,0,0,0,0,0,0,0,0,0,0,0,0,0,0,0,0,0,0,0,0,0,0,0],"sum_hessian":[2.93567E5,2.0519E5,8.8377E4,1.58482E5,4.6708E4,6.3405E4,2.4972E4,5.7734E4,1.00748E5,2.9364E4,1.7344E4,1.7595E4,4.581E4,9.254E3,1.5718E4,1.8494E4,3.924E4,3.1689E4,6.9059E4,1.1679E4,1.7685E4,6.909E3,1.0435E4,4.403E3,1.3192E4,2.1218E4,2.4592E4,6.939E3,2.315E3,1.0684E4,5.034E3,4.798E3,1.3696E4,8.521E3,3.0719E4,1.3122E4,1.8567E4,3.5393E4,3.3666E4,2.441E3,9.238E3,5.84E3,1.1845E4,1.7E1,6.892E3,5.865E3,4.57E3,2.769E3,1.634E3,4.189E3,9.003E3,1.5278E4,5.94E3,1.4402E4,1.019E4,2.739E3,4.2E3,2.13E3,1.85E2,4.202E3,6.482E3,2.39E2,4.795E3,4.436E3,3.62E2,4.116E3,9.58E3,6.818E3,1.703E3,2.2815E4,7.904E3,1.2436E4,6.86E2,1.8476E4,9.1E1,1.4682E4,2.0711E4,9.2E1,3.3574E4,2.272E3,1.69E2,4.527E3,4.711E3,5.75E3,9E1,1.0025E4,1.82E3,1.5E1,2E0,4.229E3,2.663E3,4.55E3,1.315E3,3.01E2,4.269E3,2.533E3,2.36E2,6.32E2,1.002E3,1.662E3,2.527E3,8.682E3,3.21E2,6.014E3,9.264E3,3.811E3,2.129E3,5.698E3,8.704E3,7.578E3,2.612E3,9.92E2,1.747E3,7.74E2,3.426E3,1.661E3,4.69E2,1.81E2,4E0,3.231E3,9.71E2,6.18E3,3.02E2,1.08E2,1.31E2,2.886E3,1.909E3],"tree_param":{"num_deleted":"0","num_feature":"22","num_nodes":"127","size_leaf_vector":"1"}},{"base_weights":[1.7915416E-1,-1.7105725E2,1.08099E3,6.9158594E2,-2.8323264E2,1.7109656E3,5.2153275E1,2.443255E2,1.5483412E3,-7.586852E2,-1.6269963E2,-1.9912054E2,2.2140073E3,3.7645468E2,-6.1188434E2,-4.707038E2,4.720573E2,2.1437764E3,4.2289633E2,-9.2204614E2,-1.0217493E2,6.913901E1,-5.293857E2,-8.635794E2,2.388762E3,1.2074858E2,2.7479438E3,-1.569043E3,5.7682764E2,5.1126303E2,-7.4476843E2,-8.9239484E2,-1.9418239E2,8.4882623E2,-1.09429504E2,1.7345178E3,3.7704587E3,-2.9369943E2,8.911851E2,-8.44339E2,-1.4968015E3,1.4538268E2,-5.5847736E2,-2.3599309E2,5.311786E2,-4.1012952E2,-7.146779E2,9.746128E2,-1.1157518E3,3.2819148E3,1.0807175E3,-2.0349946E3,5.6509503E2,3.4693286E3,9.3855255E2,-1.1934652E3,-2.491416E3,2.4964973E3,2.6919617E2,-4.7709363E2,1.2033748E3,-1.3775883E3,-5.792658E2,-4.029048E2,-2.093015E2,1.3918302E1,-1.7300935E2,5.2701763E1,3.9108484E2,-1.449918E2,4.520584E1,9.7897316E1,6.449651E2,7.756557E2,1.3563875E3,-3.392034E1,-2.7007162E2,4.0255237E2,1.258716E1,-3.0239905E2,-2.03667E2,-5.509842E2,-3.4001108E2,-5.9137768E1,2.0313976E2,-1.4076479E2,-2.4517249E2,-1.5895401E2,4.1835494E0,-4.158509E1,2.933399E2,-1.8389923E2,-8.284546E1,-1.8906778E2,-2.4878563E2,-1.4949552E1,5.0146228E2,-6.9663074E2,-2.7106152E2,-3.748678E2,1.1551742E3,2.1114247E2,1.064411E3,6.977957E2,-7.013919E2,1.6530718E1,1.1363439E3,5.9699927E2,1.3306735E3,4.7544476E2,-1.5265758E2,-4.0633917E2,5.199569E2,5.701891E2,-8.147221E2,5.9114294E2,1.6317322E3,2.8340551E1,6.721096E2,2.4493402E2,-2.3388924E2,2.3863104E2,1.4243925E3,-2.7983374E2,-4.9866638E2,-2.1960332E2,3.604415E1],"categories":[],"categories_nodes":[],"categories_segments":[],"categories_sizes":[],"default_left":[0,0,0,0,0,0,0,0,0,0,0,0,0,0,0,0,0,0,0,0,0,0,0,0,0,0,0,0,0,0,0,0,0,0,0,0,0,0,0,0,0,0,0,0,0,0,0,0,0,0,0,0,0,0,0,0,0,0,0,0,0,0,0,0,0,0,0,0,0,0,0,0,0,0,0,0,0,0,0,0,0,0,0,0,0,0,0,0,0,0,0,0,0,0,0,0,0,0,0,0,0,0,0,0,0,0,0,0,0,0,0,0,0,0,0,0,0,0,0,0,0,0,0,0,0,0,0],"id":7,"left_children":[1,3,5,7,9,11,13,15,17,19,21,23,25,27,29,31,33,35,37,39,41,43,45,47,49,51,53,55,57,59,61,63,65,67,69,71,73,75,77,79,81,83,85,87,89,91,93,95,97,99,101,103,105,107,109,111,113,115,117,119,121,123,125,-1,-1,-1,-1,-1,-1,-1,-1,-1,-1,-1,-1,-1,-1,-1,-1,-1,-1,-1,-1,-1,-1,-1,-1,-1,-1,-1,-1,-1,-1,-1,-1,-1,-1,-1,-1,-1,-1,-1,-1,-1,-1,-1,-1,-1,-1,-1,-1,-1,-1,-1,-1,-1,-1,-1,-1,-1,-1,-1,-1,-1,-1,-1,-1],"loss_changes":[5.433204E10,2.4522877E10,2.6022818E10,1.1174288E10,1.2851593E10,2.3927595E10,3.2840773E9,3.1203016E9,6.70173E9,4.864037E9,1.5209108E10,8.929922E9,2.2030017E10,3.9950536E9,7.4721984E8,5.395987E8,3.1840722E9,4.348025E9,1.162018E9,1.6207503E9,1.0210239E9,1.545286E10,1.5310213E9,1.91644E9,1.2360023E9,3.8394427E9,2.0495966E10,3.285532E8,5.4855455E9,3.631223E8,4.6788352E8,1.5990208E8,2.5741872E8,2.69965E9,5.55863E8,3.057237E9,1.1573637E9,1.498861E8,8.0133786E8,8.656179E8,5.31926E8,1.06740864E9,7.304403E7,4.8483487E9,1.3041353E10,1.1458693E9,2.6211328E8,3.563515E8,9.2821965E8,1.6282542E9,3.9924352E8,9.105162E8,5.4613494E9,1.6040518E10,4.189566E9,3.2369734E8,2.770885E8,1.9752044E9,2.757886E9,8.634085E7,4.4736822E8,1.1581466E8,3.792347E8,0E0,0E0,0E0,0E0,0E0,0E0,0E0,0E0,0E0,0E0,0E0,0E0,0E0,0E0,0E0,0E0,0E0,0E0,0E0,0E0,0E0,0E0,0E0,0E0,0E0,0E0,0E0,0E0,0E0,0E0,0E0,0E0,0E0,0E0,0E0,0E0,0E0,0E0,0E0,0E0,0E0,0E0,0E0,0E0,0E0,0E0,0E0,0E0,0E0,0E0,0E0,0E0,0E0,0E0,0E0,0E0,0E0,0E0,0E0,0E0,0E0,0E0,0E0,0E0],"parents":[2147483647,0,0,1,1,2,2,3,3,4,4,5,5,6,6,7,7,8,8,9,9,10,10,11,11,12,12,13,13,14,14,15,15,16,16,17,17,18,18,19,19,20,20,21,21,22,22,23,23,24,24,25,25,26,26,27,27,28,28,29,29,30,30,31,31,32,32,33,33,34,34,35,35,36,36,37,37,38,38,39,39,40,40,41,41,42,42,43,43,44,44,45,45,46,46,47,47,48,48,49,49,50,50,51,51,52,52,53,53,54,54,55,55,56,56,57,57,58,58,59,59,60,60,61,61,62,62],"right_children":[2,4,6,8,10,12,14,16,18,20,22,24,26,28,30,32,34,36,38,40,42,44,46,48,50,52,54,56,58,60,62,64,66,68,70,72,74,76,78,80,82,84,86,88,90,92,94,96,98,100,102,104,106,108,110,112,114,116,118,120,122,124,126,-1,-1,-1,-1,-1,-1,-1,-1,-1,-1,-1,-1,-1,-1,-1,-1,-1,-1,-1,-1,-1,-1,-1,-1,-1,-1,-1,-1,-1,-1,-1,-1,-1,-1,-1,-1,-1,-1,-1,-1,-1,-1,-1,-1,-1,-1,-1,-1,-1,-1,-1,-1,-1,-1,-1,-1,-1,-1,-1,-1,-1,-1,-1,-1],"split_conditions":[1.7244452E-1,1.6768813E-2,3.1186987E-2,1.07323945E-1,1.4084507E-2,1.4084507E-2,3.0210875E-2,4.885656E-2,1.6262714E-2,1E0,1.3783527E-2,1E0,1.1570828E-1,1.3054803E-2,1.6059918E-2,3.4138907E-2,1.3485181E-2,1E0,5E-1,1.4159793E-1,1.6163135E-2,1.2377279E-1,2.928559E-2,5E-1,2.5296422E-2,1.255666E-2,2.937441E-2,2.818792E-1,1.6880823E-2,5E-1,1.4084507E-2,2.5671216E-2,2.805128E-2,5E-1,5E-1,1.4084507E-2,5E-1,3.285968E-1,3.1113056E-2,3.4846958E-2,2.7606659E-2,1.2482469E-1,3.3369973E-2,6.4783886E-2,5E-1,5E-1,3.4993716E-2,5E-1,5.4333335E-1,1.255666E-2,2.5046825E-1,2.5E-1,2.4401666E-1,5E-1,3.7801817E-2,2.6712248E-1,2.948228E-1,2.583311E-1,2.7929872E-1,1.3291314E-2,2.7929872E-1,5E-1,2.5046825E-1,-4.029048E2,-2.093015E2,1.3918302E1,-1.7300935E2,5.2701763E1,3.9108484E2,-1.449918E2,4.520584E1,9.7897316E1,6.449651E2,7.756557E2,1.3563875E3,-3.392034E1,-2.7007162E2,4.0255237E2,1.258716E1,-3.0239905E2,-2.03667E2,-5.509842E2,-3.4001108E2,-5.9137768E1,2.0313976E2,-1.4076479E2,-2.4517249E2,-1.5895401E2,4.1835494E0,-4.158509E1,2.933399E2,-1.8389923E2,-8.284546E1,-1.8906778E2,-2.4878563E2,-1.4949552E1,5.0146228E2,-6.9663074E2,-2.7106152E2,-3.748678E2,1.1551742E3,2.1114247E2,1.064411E3,6.977957E2,-7.013919E2,1.6530718E1,1.1363439E3,5.9699927E2,1.3306735E3,4.7544476E2,-1.5265758E2,-4.0633917E2,5.199569E2,5.701891E2,-8.147221E2,5.9114294E2,1.6317322E3,2.8340551E1,6.721096E2,2.4493402E2,-2.3388924E2,2.3863104E2,1.4243925E3,-2.7983374E2,-4.9866638E2,-2.1960332E2,3.604415E1],"split_indices":[4,20,21,4,6,6,19,4,19,5,19,5,13,19,20,4,19,5,8,4,19,13,19,5,20,20,20,18,20,8,6,4,21,8,8,6,8,11,19,20,20,13,19,4,8,8,19,8,12,20,4,9,4,8,20,13,4,4,4,20,4,8,4,0,0,0,0,0,0,0,0,0,0,0,0,0,0,0,0,0,0,0,0,0,0,0,0,0,0,0,0,0,0,0,0,0,0,0,0,0,0,0,0,0,0,0,0,0,0,0,0,0,0,0,0,0,0,0,0,0,0,0,0,0,0,0,0],"split_type":[0,0,0,0,0,0,0,0,0,0,0,0,0,0,0,0,0,0,0,0,0,0,0,0,0,0,0,0,0,0,0,0,0,0,0,0,0,0,0,0,0,0,0,0,0,0,0,0,0,0,0,0,0,0,0,0,0,0,0,0,0,0,0,0,0,0,0,0,0,0,0,0,0,0,0,0,0,0,0,0,0,0,0,0,0,0,0,0,0,0,0,0,0,0,0,0,0,0,0,0,0,0,0,0,0,0,0,0,0,0,0,0,0,0,0,0,0,0,0,0,0,0,0,0,0,0,0],"sum_hessian":[2.93567E5,2.53418E5,4.0149E4,2.9161E4,2.24257E5,2.4901E4,1.5248E4,1.916E4,1.0001E4,4.5353E4,1.78904E5,5.191E3,1.971E4,1.0245E4,5.003E3,4.628E3,1.4532E4,6.54E3,3.461E3,3.6316E4,9.037E3,1.09606E5,6.9298E4,4.131E3,1.06E3,4.006E3,1.5704E4,9.56E2,9.289E3,5.29E2,4.474E3,1.832E3,2.796E3,8.818E3,5.714E3,5.227E3,1.313E3,1.368E3,2.093E3,3.1993E4,4.323E3,5.859E3,3.178E3,6.6012E4,4.3594E4,4.2164E4,2.7134E4,4.98E2,3.633E3,6.29E2,4.31E2,6.84E2,3.322E3,1.1227E4,4.477E3,6.81E2,2.75E2,1.282E3,8.007E3,2.18E2,3.11E2,9.26E2,3.548E3,5.51E2,1.281E3,1.717E3,1.079E3,3.556E3,5.262E3,2.344E3,3.37E3,1.191E3,4.036E3,5.11E2,8.02E2,1.055E3,3.13E2,1.367E3,7.26E2,1.6081E4,1.5912E4,2.232E3,2.091E3,3.564E3,2.295E3,2.365E3,8.13E2,3.034E4,3.5672E4,1.744E4,2.6154E4,1.6769E4,2.5395E4,1.5626E4,1.1508E4,2.02E2,2.96E2,5.42E2,3.091E3,7E1,5.59E2,3.75E2,5.6E1,4.4E1,6.4E2,2.869E3,4.53E2,4.437E3,6.79E3,3.095E3,1.382E3,6.46E2,3.5E1,1.3E1,2.62E2,1.089E3,1.93E2,7.356E3,6.51E2,4.1E1,1.77E2,2.8E2,3.1E1,3.63E2,5.63E2,2.912E3,6.36E2],"tree_param":{"num_deleted":"0","num_feature":"22","num_nodes":"127","size_leaf_vector":"1"}},{"base_weights":[1.5535408E-1,-1.8315013E2,5.675761E2,-5.220931E2,-3.4078705E1,3.0969342E2,1.9221305E3,-4.4851505E2,-9.3486993E2,1.8746957E2,-4.234267E2,-1.1057385E2,7.1645026E2,4.05942E3,1.4876973E3,-8.1698425E2,-4.1362488E2,-1.5315096E3,-5.662346E2,-2.4623187E2,4.7577005E2,-3.3492288E2,-7.3724457E2,3.0191058E2,-2.9219882E2,1.6489198E3,4.4724597E2,3.6429888E3,8.627882E3,1.3649475E3,7.235887E3,-9.032672E2,4.666725E2,3.8046104E1,-4.381451E2,2.998022E3,-1.7531472E3,-1.3577572E3,-5.0232523E2,-3.8560193E2,8.942579E1,-7.9759575E1,8.385662E2,5.423328E2,-3.6608624E2,-6.4591345E2,-1.1516272E3,-8.4469507E2,4.8208218E2,1.185391E3,-3.280238E2,1.9278458E3,-2.1882097E3,3.5926562E2,2.4929841E3,3.8384675E3,-7.130552E3,6.8812905E3,1.6025288E4,5.124532E2,1.9197625E3,1.0019902E4,4.0194883E3,-3.4619238E2,-1.7679784E2,3.678778E2,-2.9194748E2,-8.068075E1,8.40357E1,-1.6913776E2,-1.0323867E2,1.3845424E3,2.982244E2,-1.7445951E3,-5.0959686E2,-2.2085347E2,-5.3174115E2,-1.7970486E2,-2.397773E1,-1.818742E2,-9.0583374E1,3.2549396E2,-2.3336605E1,-1.3566289E2,5.2278435E1,2.0917287E2,8.904088E2,-7.141956E1,4.7254636E2,-1.5093591E2,-8.273664E1,-2.0638507E2,7.962601E1,-1.7592412E2,-4.647772E2,-4.0509525E2,-1.8170248E2,4.431863E1,3.0501297E2,1.8964412E2,1.3932157E3,-1.3885034E2,-5.432986E1,4.836523E2,1.3098179E3,-4.6301755E2,-1.8397731E3,1.424864E1,2.7020947E2,2.0637018E2,1.1264165E3,1.3654181E3,3.8994354E2,-2.5627917E3,2.8101497E3,1.5115378E3,3.1735046E3,5.260462E3,5.4878076E2,2.3982225E2,-1.938814E2,3.8105264E2,9.4656824E2,1.3769476E3,3.8240835E3,1.2223378E2,1.5158962E3],"categories":[],"categories_nodes":[],"categories_segments":[],"categories_sizes":[],"default_left":[0,0,0,0,0,0,0,0,0,0,0,0,0,0,0,0,0,0,0,0,0,0,0,0,0,0,0,0,0,0,0,0,0,0,0,0,0,0,0,0,0,0,0,0,0,0,0,0,0,0,0,0,0,0,0,0,0,0,0,0,0,0,0,0,0,0,0,0,0,0,0,0,0,0,0,0,0,0,0,0,0,0,0,0,0,0,0,0,0,0,0,0,0,0,0,0,0,0,0,0,0,0,0,0,0,0,0,0,0,0,0,0,0,0,0,0,0,0,0,0,0,0,0,0,0,0,0],"id":8,"left_children":[1,3,5,7,9,11,13,15,17,19,21,23,25,27,29,31,33,35,37,39,41,43,45,47,49,51,53,55,57,59,61,63,65,67,69,71,73,75,77,79,81,83,85,87,89,91,93,95,97,99,101,103,105,107,109,111,113,115,117,119,121,123,125,-1,-1,-1,-1,-1,-1,-1,-1,-1,-1,-1,-1,-1,-1,-1,-1,-1,-1,-1,-1,-1,-1,-1,-1,-1,-1,-1,-1,-1,-1,-1,-1,-1,-1,-1,-1,-1,-1,-1,-1,-1,-1,-1,-1,-1,-1,-1,-1,-1,-1,-1,-1,-1,-1,-1,-1,-1,-1,-1,-1,-1,-1,-1,-1],"loss_changes":[3.0534504E10,1.1211254E10,2.503873E10,2.0581171E9,1.3293513E10,1.0294142E10,1.0638397E10,7.3922765E8,2.254203E9,1.2281312E10,1.5520461E9,2.218994E9,7.6808724E9,3.651711E9,6.713676E9,5.514414E8,5.820447E8,3.9355791E9,3.199808E8,1.8348178E9,1.1891366E10,1.1920635E9,4.6453504E8,1.8710415E9,1.0889366E9,7.3409577E9,4.2732027E9,3.7676216E9,1.9698852E9,4.4123607E9,1.7416714E9,3.6625357E8,3.4460774E8,2.0123792E8,5.886433E8,5.884438E8,8.16428E8,1.2062368E8,2.395735E8,5.113787E8,1.9158332E9,2.2054408E9,1.0739184E10,1.2061688E9,5.2082125E8,3.861888E8,4.9780275E8,1.4783245E8,1.3987834E9,9.2893075E8,3.9760026E8,4.91195E9,1.1732155E9,3.8434222E9,2.2271299E9,3.1523144E9,8.254989E8,8.460247E8,6.1082624E8,1.2241203E9,4.53196E9,1.5111465E9,3.4884723E8,0E0,0E0,0E0,0E0,0E0,0E0,0E0,0E0,0E0,0E0,0E0,0E0,0E0,0E0,0E0,0E0,0E0,0E0,0E0,0E0,0E0,0E0,0E0,0E0,0E0,0E0,0E0,0E0,0E0,0E0,0E0,0E0,0E0,0E0,0E0,0E0,0E0,0E0,0E0,0E0,0E0,0E0,0E0,0E0,0E0,0E0,0E0,0E0,0E0,0E0,0E0,0E0,0E0,0E0,0E0,0E0,0E0,0E0,0E0,0E0,0E0,0E0,0E0,0E0],"parents":[2147483647,0,0,1,1,2,2,3,3,4,4,5,5,6,6,7,7,8,8,9,9,10,10,11,11,12,12,13,13,14,14,15,15,16,16,17,17,18,18,19,19,20,20,21,21,22,22,23,23,24,24,25,25,26,26,27,27,28,28,29,29,30,30,31,31,32,32,33,33,34,34,35,35,36,36,37,37,38,38,39,39,40,40,41,41,42,42,43,43,44,44,45,45,46,46,47,47,48,48,49,49,50,50,51,51,52,52,53,53,54,54,55,55,56,56,57,57,58,58,59,59,60,60,61,61,62,62],"right_children":[2,4,6,8,10,12,14,16,18,20,22,24,26,28,30,32,34,36,38,40,42,44,46,48,50,52,54,56,58,60,62,64,66,68,70,72,74,76,78,80,82,84,86,88,90,92,94,96,98,100,102,104,106,108,110,112,114,116,118,120,122,124,126,-1,-1,-1,-1,-1,-1,-1,-1,-1,-1,-1,-1,-1,-1,-1,-1,-1,-1,-1,-1,-1,-1,-1,-1,-1,-1,-1,-1,-1,-1,-1,-1,-1,-1,-1,-1,-1,-1,-1,-1,-1,-1,-1,-1,-1,-1,-1,-1,-1,-1,-1,-1,-1,-1,-1,-1,-1,-1,-1,-1,-1,-1,-1,-1],"split_conditions":[6.25E-1,5.416667E-1,2.6390836E-1,1.4159793E-1,3.663218E-2,9.2807904E-2,1.7687686E-2,4.625E-1,8.8809945E-2,5E-1,3.8814318E-1,2.354407E-2,1.9436678E-2,5.1081115E-1,3.2204038E-1,1E0,1.430456E-2,4.3416667E-1,4.625E-1,1.9150303E-1,9.9813E-2,2.0026088E-2,5.302013E-1,3.7364695E-2,1.4203543E-2,6.350405E-1,2.3333125E-1,3.7472036E-1,3.2204038E-1,5E-1,2.5872855E-2,3.4846958E-2,4.3416667E-1,7.486447E-2,2.5653414E-2,2.4518708E-2,4.5583335E-1,4.3416667E-1,2.3333125E-1,5.29453E-2,1.6059918E-2,4.616643E-2,2.5046825E-1,7.718234E-2,5E-1,3.4034595E-1,5E-1,2.8292168E-2,1E0,1E0,6.317099E-2,2.101459E-1,3.5682327E-1,1E0,5E-1,1.6356265E-2,1.2999327E-2,1E0,1.5954852E-2,1.7817995E-2,1E0,5E-1,2.8169014E-2,-3.4619238E2,-1.7679784E2,3.678778E2,-2.9194748E2,-8.068075E1,8.40357E1,-1.6913776E2,-1.0323867E2,1.3845424E3,2.982244E2,-1.7445951E3,-5.0959686E2,-2.2085347E2,-5.3174115E2,-1.7970486E2,-2.397773E1,-1.818742E2,-9.0583374E1,3.2549396E2,-2.3336605E1,-1.3566289E2,5.2278435E1,2.0917287E2,8.904088E2,-7.141956E1,4.7254636E2,-1.5093591E2,-8.273664E1,-2.0638507E2,7.962601E1,-1.7592412E2,-4.647772E2,-4.0509525E2,-1.8170248E2,4.431863E1,3.0501297E2,1.8964412E2,1.3932157E3,-1.3885034E2,-5.432986E1,4.836523E2,1.3098179E3,-4.6301755E2,-1.8397731E3,1.424864E1,2.7020947E2,2.0637018E2,1.1264165E3,1.3654181E3,3.8994354E2,-2.5627917E3,2.8101497E3,1.5115378E3,3.1735046E3,5.260462E3,5.4878076E2,2.3982225E2,-1.938814E2,3.8105264E2,9.4656824E2,1.3769476E3,3.8240835E3,1.2223378E2,1.5158962E3],"split_indices":[12,12,13,4,20,4,20,12,11,8,18,20,20,13,4,5,20,12,12,13,13,4,18,4,4,4,4,18,4,8,20,20,12,4,21,20,12,12,4,13,20,13,4,14,8,13,8,4,5,3,4,4,18,5,8,19,20,5,19,19,5,8,6,0,0,0,0,0,0,0,0,0,0,0,0,0,0,0,0,0,0,0,0,0,0,0,0,0,0,0,0,0,0,0,0,0,0,0,0,0,0,0,0,0,0,0,0,0,0,0,0,0,0,0,0,0,0,0,0,0,0,0,0,0,0,0,0],"split_type":[0,0,0,0,0,0,0,0,0,0,0,0,0,0,0,0,0,0,0,0,0,0,0,0,0,0,0,0,0,0,0,0,0,0,0,0,0,0,0,0,0,0,0,0,0,0,0,0,0,0,0,0,0,0,0,0,0,0,0,0,0,0,0,0,0,0,0,0,0,0,0,0,0,0,0,0,0,0,0,0,0,0,0,0,0,0,0,0,0,0,0,0,0,0,0,0,0,0,0,0,0,0,0,0,0,0,0,0,0,0,0,0,0,0,0,0,0,0,0,0,0,0,0,0,0,0,0],"sum_hessian":[2.93567E5,2.21887E5,7.168E4,6.7778E4,1.54109E5,6.0217E4,1.1463E4,5.7526E4,1.0252E4,9.822E4,5.5889E4,2.9617E4,3.06E4,1.935E3,9.528E3,4.974E3,5.2552E4,3.914E3,6.338E3,3.922E4,5.9E4,4.3596E4,1.2293E4,9.054E3,2.0563E4,6.854E3,2.3746E4,1.775E3,1.6E2,9.33E3,1.98E2,4.661E3,3.13E2,2.706E3,4.9846E4,1.82E2,3.732E3,4.72E2,5.866E3,2.7713E4,1.1507E4,2.3309E4,3.5691E4,1.495E3,4.2101E4,1.0075E4,2.218E3,1.229E3,7.825E3,4.86E2,2.0077E4,6.39E3,4.64E2,2.2768E4,9.78E2,1.744E3,3.1E1,1.31E2,2.9E1,3.679E3,5.651E3,1.05E2,9.3E1,2.59E3,2.071E3,2.05E2,1.08E2,1.193E3,1.513E3,2.1332E4,2.8514E4,1E2,8.2E1,4.8E1,3.684E3,1.9E2,2.82E2,4.773E3,1.093E3,7.617E3,2.0096E4,1.654E3,9.853E3,9.451E3,1.3858E4,3.3471E4,2.22E3,8.52E2,6.43E2,1.6721E4,2.538E4,9.631E3,4.44E2,9.17E2,1.301E3,3.93E2,8.36E2,4.815E3,3.01E3,4.2E2,6.6E1,1.0469E4,9.608E3,5.659E3,7.31E2,4E2,6.4E1,1.4449E4,8.319E3,4.03E2,5.75E2,1.361E3,3.83E2,2.9E1,2E0,8.9E1,4.2E1,2.6E1,3E0,2.949E3,7.3E2,3.705E3,1.946E3,3.6E1,6.9E1,2.1E1,7.2E1],"tree_param":{"num_deleted":"0","num_feature":"22","num_nodes":"127","size_leaf_vector":"1"}},{"base_weights":[1.8085954E-1,-1.2443649E2,4.9688092E2,-5.968073E2,-2.3786001E0,8.581019E2,-1.8464299E2,-6.2855995E1,-6.732619E2,2.93018E2,-2.0100496E2,1.3717732E3,8.335434E1,1.2292097E3,-2.3057652E2,4.068117E2,-1.7417389E2,-5.625294E2,-1.0196553E3,-7.0436104E1,6.688774E2,-2.0770477E2,3.6645498E3,7.158921E2,2.1396284E3,-3.5700565E2,3.7122375E2,-6.198375E-1,3.001476E3,4.2608715E1,-4.241701E2,8.337035E2,-2.608707E2,-2.1930188E2,9.988693E2,-6.7435876E2,-3.4549887E2,-1.5022454E3,-9.117641E2,-5.2557184E2,4.8306446E1,1.0854235E3,3.204007E1,-1.0613595E2,-3.8914914E2,4.9313394E3,9.0840857E2,2.6831863E2,1.1357633E3,1.1629415E3,3.0329468E3,-1.7530437E2,-4.879355E2,6.9505066E2,-4.0064194E2,-1.4471893E2,5.3455186E3,-2.0689911E2,5.2736826E3,-4.0045593E2,3.2843112E2,-3.5691193E2,-1.4642472E3,1.378661E2,7.862847E2,-8.74122E1,9.685032E2,-1.11798775E2,-3.913377E1,2.2864282E3,2.302275E2,-2.3931989E2,-1.4585869E2,3.5070453E2,-1.05445244E2,-3.0975284E2,-5.440087E2,-1.1920583E2,-3.0579404E2,-1.4373082E2,-7.1870905E2,-7.8806046E1,7.631868E1,2.565028E2,8.125486E2,6.701818E1,-1.620905E2,1.1755722E1,-1.280235E2,-1.0196891E2,-3.6771506E2,9.3142554E2,1.7814427E3,4.8569223E2,-4.9303702E2,-3.228725E1,1.5408928E2,1.5695699E2,4.6576047E2,1.2958116E2,4.9677094E2,8.568092E2,2.8886104E3,-5.868447E1,6.1729376E2,-1.3851909E2,-5.761934E2,3.3391617E1,3.5458954E2,-1.2876584E2,1.3490594E3,7.738834E2,-1.2021026E2,7.139844E2,4.805348E3,4.1428903E2,-6.41986E2,2.021889E3,3.9982703E2,-1.3668488E2,5.581422E1,2.240601E2,-1.5101083E2,-9.236671E1,-1.7899379E2,-5.8164294E2,-1.8431282E2],"categories":[],"categories_nodes":[],"categories_segments":[],"categories_sizes":[],"default_left":[0,0,0,0,0,0,0,0,0,0,0,0,0,0,0,0,0,0,0,0,0,0,0,0,0,0,0,0,0,0,0,0,0,0,0,0,0,0,0,0,0,0,0,0,0,0,0,0,0,0,0,0,0,0,0,0,0,0,0,0,0,0,0,0,0,0,0,0,0,0,0,0,0,0,0,0,0,0,0,0,0,0,0,0,0,0,0,0,0,0,0,0,0,0,0,0,0,0,0,0,0,0,0,0,0,0,0,0,0,0,0,0,0,0,0,0,0,0,0,0,0,0,0,0,0,0,0],"id":9,"left_children":[1,3,5,7,9,11,13,15,17,19,21,23,25,27,29,31,33,35,37,39,41,43,45,47,49,51,53,55,57,59,61,63,65,67,69,71,73,75,77,79,81,83,85,87,89,91,93,95,97,99,101,103,105,107,109,111,113,115,117,119,121,123,125,-1,-1,-1,-1,-1,-1,-1,-1,-1,-1,-1,-1,-1,-1,-1,-1,-1,-1,-1,-1,-1,-1,-1,-1,-1,-1,-1,-1,-1,-1,-1,-1,-1,-1,-1,-1,-1,-1,-1,-1,-1,-1,-1,-1,-1,-1,-1,-1,-1,-1,-1,-1,-1,-1,-1,-1,-1,-1,-1,-1,-1,-1,-1,-1],"loss_changes":[1.817117E10,1.3531308E10,1.4495525E10,1.9672187E9,1.0942618E10,1.5315196E10,1.3249958E9,3.1569984E8,1.6163287E9,1.0243434E10,2.8888622E9,1.1652776E10,1.9452325E9,1.3992959E9,1.0449046E9,3.2999507E8,2.5860493E8,7.75084E8,5.302364E8,2.06029E9,9.778688E9,2.0515589E9,6.693704E8,2.3453527E9,9.297244E9,1.4422534E8,2.3195725E9,2.9351555E8,1.9183849E9,1.03792826E9,8.083521E8,4.7089606E8,4.904819E7,6.4011984E7,2.7157965E8,4.8899686E8,9.889971E7,2.70538E8,4.613888E8,6.843438E8,1.9378986E9,8.3321774E9,1.5967004E9,3.3253875E9,1.645737E9,2.2431309E8,1.1508328E8,5.573612E8,1.6433393E9,1.8349425E9,6.468612E9,1.1568834E8,1.3145728E8,1.8579062E9,3.8583645E8,2.5976136E8,2.783732E8,3.4059187E8,8.807053E8,1.0406314E8,1.7343867E9,1.2747149E8,2.8193728E8,0E0,0E0,0E0,0E0,0E0,0E0,0E0,0E0,0E0,0E0,0E0,0E0,0E0,0E0,0E0,0E0,0E0,0E0,0E0,0E0,0E0,0E0,0E0,0E0,0E0,0E0,0E0,0E0,0E0,0E0,0E0,0E0,0E0,0E0,0E0,0E0,0E0,0E0,0E0,0E0,0E0,0E0,0E0,0E0,0E0,0E0,0E0,0E0,0E0,0E0,0E0,0E0,0E0,0E0,0E0,0E0,0E0,0E0,0E0,0E0,0E0,0E0,0E0,0E0],"parents":[2147483647,0,0,1,1,2,2,3,3,4,4,5,5,6,6,7,7,8,8,9,9,10,10,11,11,12,12,13,13,14,14,15,15,16,16,17,17,18,18,19,19,20,20,21,21,22,22,23,23,24,24,25,25,26,26,27,27,28,28,29,29,30,30,31,31,32,32,33,33,34,34,35,35,36,36,37,37,38,38,39,39,40,40,41,41,42,42,43,43,44,44,45,45,46,46,47,47,48,48,49,49,50,50,51,51,52,52,53,53,54,54,55,55,56,56,57,57,58,58,59,59,60,60,61,61,62,62],"right_children":[2,4,6,8,10,12,14,16,18,20,22,24,26,28,30,32,34,36,38,40,42,44,46,48,50,52,54,56,58,60,62,64,66,68,70,72,74,76,78,80,82,84,86,88,90,92,94,96,98,100,102,104,106,108,110,112,114,116,118,120,122,124,126,-1,-1,-1,-1,-1,-1,-1,-1,-1,-1,-1,-1,-1,-1,-1,-1,-1,-1,-1,-1,-1,-1,-1,-1,-1,-1,-1,-1,-1,-1,-1,-1,-1,-1,-1,-1,-1,-1,-1,-1,-1,-1,-1,-1,-1,-1,-1,-1,-1,-1,-1,-1,-1,-1,-1,-1,-1,-1,-1,-1,-1,-1,-1,-1],"split_conditions":[1E0,1.4084507E-2,3.7317857E-2,5E-1,2.4914535E-2,1E0,2.0026088E-2,1.8466158E-2,1.4159793E-1,1.21669E-1,3.2204038E-1,1.167997E-1,5E-1,9.156275E-2,4.8471086E-2,3.281606E-2,2.3333125E-1,4.0984828E-2,9.805984E-2,3.173212E-2,5.5062167E-2,4.8052285E-2,4.3339255E-1,7.042254E-2,7.042254E-2,2.3599068E-2,3.120751E-2,1.629266E-1,5E-1,5E-1,5.067114E-1,2.4941562E-1,5.659771E-1,7.526882E-2,1.4765101E-2,2.5653414E-2,2.5E-1,5E-1,1.7160852E-2,2.3333125E-1,5E-1,2.2425872E-1,3.2448716E-2,1.8542124E-2,5.067114E-1,5E-1,3.370364E-2,5E-1,5E-1,5E-1,5.1081115E-1,4.0674955E-1,2.7929872E-1,1.06114276E-1,3.2204038E-1,2.5E-1,4.2281878E-1,2.5950783E-1,2.732275E-2,2.6712248E-1,1.7500432E-2,4.0604028E-1,3.4793813E-2,1.378661E2,7.862847E2,-8.74122E1,9.685032E2,-1.11798775E2,-3.913377E1,2.2864282E3,2.302275E2,-2.3931989E2,-1.4585869E2,3.5070453E2,-1.05445244E2,-3.0975284E2,-5.440087E2,-1.1920583E2,-3.0579404E2,-1.4373082E2,-7.1870905E2,-7.8806046E1,7.631868E1,2.565028E2,8.125486E2,6.701818E1,-1.620905E2,1.1755722E1,-1.280235E2,-1.0196891E2,-3.6771506E2,9.3142554E2,1.7814427E3,4.8569223E2,-4.9303702E2,-3.228725E1,1.5408928E2,1.5695699E2,4.6576047E2,1.2958116E2,4.9677094E2,8.568092E2,2.8886104E3,-5.868447E1,6.1729376E2,-1.3851909E2,-5.761934E2,3.3391617E1,3.5458954E2,-1.2876584E2,1.3490594E3,7.738834E2,-1.2021026E2,7.139844E2,4.805348E3,4.1428903E2,-6.41986E2,2.021889E3,3.9982703E2,-1.3668488E2,5.581422E1,2.240601E2,-1.5101083E2,-9.236671E1,-1.7899379E2,-5.8164294E2,-1.8431282E2],"split_indices":[5,6,20,5,20,10,4,20,4,13,4,4,8,14,20,21,4,20,13,13,11,20,11,6,6,19,19,13,8,8,18,13,13,13,16,21,9,8,20,4,8,4,19,19,18,8,19,8,8,8,13,11,4,4,4,9,18,18,21,13,19,18,21,0,0,0,0,0,0,0,0,0,0,0,0,0,0,0,0,0,0,0,0,0,0,0,0,0,0,0,0,0,0,0,0,0,0,0,0,0,0,0,0,0,0,0,0,0,0,0,0,0,0,0,0,0,0,0,0,0,0,0,0,0,0,0,0],"split_type":[0,0,0,0,0,0,0,0,0,0,0,0,0,0,0,0,0,0,0,0,0,0,0,0,0,0,0,0,0,0,0,0,0,0,0,0,0,0,0,0,0,0,0,0,0,0,0,0,0,0,0,0,0,0,0,0,0,0,0,0,0,0,0,0,0,0,0,0,0,0,0,0,0,0,0,0,0,0,0,0,0,0,0,0,0,0,0,0,0,0,0,0,0,0,0,0,0,0,0,0,0,0,0,0,0,0,0,0,0,0,0,0,0,0,0,0,0,0,0,0,0,0,0,0,0,0,0],"sum_hessian":[2.93567E5,2.34687E5,5.888E4,4.8189E4,1.86498E5,3.8483E4,2.0397E4,6.036E3,4.2153E4,7.4983E4,1.11515E5,2.314E4,1.5343E4,6.41E2,1.9756E4,1.156E3,4.88E3,3.1944E4,1.0209E4,3.8121E4,3.6862E4,1.11323E5,1.92E2,1.2481E4,1.0659E4,6.065E3,9.278E3,3.79E2,2.62E2,8.194E3,1.1562E4,7.05E2,4.51E2,4.7E3,1.8E2,2.108E4,1.0864E4,1.863E3,8.346E3,7.887E3,3.0234E4,2.2285E4,1.4577E4,7.1372E4,3.9951E4,1.31E2,6.1E1,6.042E3,6.439E3,5.093E3,5.566E3,2.541E3,3.524E3,6.536E3,2.742E3,3.7E2,9E0,1.09E2,1.53E2,3.213E3,4.981E3,1.0861E4,7.01E2,5.84E2,1.21E2,4.48E2,3E0,1.723E3,2.977E3,5E0,1.75E2,1.273E4,8.35E3,4.2E1,1.0822E4,7.44E2,1.119E3,1.444E3,6.902E3,7.697E3,1.9E2,1.205E4,1.8184E4,1.9516E4,2.769E3,1.0925E4,3.652E3,4.9112E4,2.226E4,3.7731E4,2.22E3,4.8E1,8.3E1,4.8E1,1.3E1,2.386E3,3.656E3,2.608E3,3.831E3,2.052E3,3.041E3,5.422E3,1.44E2,2.519E3,2.2E1,3.462E3,6.2E1,2.973E3,3.563E3,2.727E3,1.5E1,3.1E1,3.39E2,8E0,1E0,6E1,4.9E1,1.11E2,4.2E1,2.937E3,2.76E2,3.314E3,1.667E3,9.019E3,1.842E3,4.49E2,2.52E2],"tree_param":{"num_deleted":"0","num_feature":"22","num_nodes":"127","size_leaf_vector":"1"}},{"base_weights":[1.9090097E-1,4.494341E2,-9.043858E1,2.850813E2,1.7020425E3,-1.10277336E2,2.9093242E3,3.9388852E2,-1.6123738E3,2.4531794E3,5.4131836E2,-1.9201546E2,1.4423872E2,4.1369673E3,5.0068036E2,2.9296967E2,2.8470652E3,-1.792443E3,9.452188E3,2.1237551E3,5.8769727E3,-2.9752652E2,1.0606738E3,-4.8895258E2,-1.5621605E2,-1.3700714E2,3.9647006E2,1.8626083E3,5.534008E3,-8.7408545E2,1.3770348E3,-1.4885059E2,4.9247968E2,3.8474824E3,6.4016113E2,-1.3192822E3,-3.8405037E3,2.6277312E3,1.4295988E4,2.2079307E3,-7.7473228E3,4.5880176E3,1.0638867E4,-7.1799774E2,-7.099195E1,8.544726E2,3.4485889E3,-3.955862E2,-8.771325E2,-4.0311234E2,-8.8578766E1,-5.782652E2,-5.409394E1,5.6674506E2,-4.2451248E2,-1.00536354E2,2.3004795E3,7.7131475E3,3.7418333E3,6.282998E2,-1.2164053E3,1.6937517E3,-9.773427E2,-1.9769592E2,-2.2173115E1,5.9824734E0,2.4254906E2,6.579724E2,1.4903069E3,-4.571826E1,3.6468488E2,-4.1470346E2,2.1703064E3,-1.4498297E3,-5.1241766E2,1.5745691E3,-5.5983295E2,4.992764E3,8.9675415E2,-1.217047E2,7.5074634E2,-3.393102E3,-1.6774802E2,7.3704706E2,1.7328153E3,1.4234514E3,3.7038987E3,-1.7666162E1,-3.5573447E2,-1.0195035E2,1.4406865E2,-4.6483635E1,3.6516376E2,6.6509424E2,1.9976934E3,-3.570863E1,-1.4103781E2,-5.4539356E1,-3.190523E2,-1.02824104E2,-1.9428117E2,-9.209317E1,4.4929007E-1,-1.3051007E2,-4.1497092E2,-9.190271E1,3.3623962E1,1.8513884E1,2.7080673E2,-7.677261E1,-2.3865292E2,-1.09986984E2,1.4142487E3,8.85407E2,1.4706134E2,2.8838076E3,1.7624786E3,-2.2688083E2,1.2492345E3,-4.509878E2,6.335996E2,-1.0959917E3,-3.3209277E2,6.563626E2,2.1101082E2,9.744099E2,-3.8556165E2],"categories":[],"categories_nodes":[],"categories_segments":[],"categories_sizes":[],"default_left":[0,0,0,0,0,0,0,0,0,0,0,0,0,0,0,0,0,0,0,0,0,0,0,0,0,0,0,0,0,0,0,0,0,0,0,0,0,0,0,0,0,0,0,0,0,0,0,0,0,0,0,0,0,0,0,0,0,0,0,0,0,0,0,0,0,0,0,0,0,0,0,0,0,0,0,0,0,0,0,0,0,0,0,0,0,0,0,0,0,0,0,0,0,0,0,0,0,0,0,0,0,0,0,0,0,0,0,0,0,0,0,0,0,0,0,0,0,0,0,0,0,0,0,0,0,0,0],"id":10,"left_children":[1,3,5,7,9,11,13,15,17,19,21,23,25,27,29,31,33,35,37,39,41,43,45,47,49,51,53,55,57,59,61,63,65,67,69,71,73,75,77,79,81,83,85,87,89,91,93,95,97,99,101,103,105,107,109,111,113,115,117,119,121,123,125,-1,-1,-1,-1,-1,-1,-1,-1,-1,-1,-1,-1,-1,-1,-1,-1,-1,-1,-1,-1,-1,-1,-1,-1,-1,-1,-1,-1,-1,-1,-1,-1,-1,-1,-1,-1,-1,-1,-1,-1,-1,-1,-1,-1,-1,-1,-1,-1,-1,-1,-1,-1,-1,-1,-1,-1,-1,-1,-1,-1,-1,-1,-1,-1],"loss_changes":[1.1952567E10,1.0145186E10,1.4538224E10,8.995338E9,4.982239E9,5.0487235E9,4.743842E9,1.020036E10,4.7249536E9,3.901264E9,9.792405E8,1.9525903E9,4.18496E9,3.3672376E9,6.554003E8,3.4887777E9,3.5918756E9,2.2489718E9,1.2185741E9,2.648575E9,1.8171013E9,8.186511E7,6.80492E8,7.159224E8,2.7374792E9,1.0204653E9,4.347935E9,3.4923046E8,2.5408922E9,1.0979504E8,2.4921824E8,4.7067344E8,4.0716196E9,2.0645683E9,2.3232992E8,1.0300339E9,9.142963E8,2.1001363E8,5.3395814E8,2.4191396E9,6.8518746E8,5.960033E8,5.855032E8,9.273485E7,8.315048E7,4.6850253E8,4.2017062E8,3.2839552E8,4.9627776E8,5.2004096E8,2.531444E9,5.080901E8,9.8433114E8,4.3702825E9,3.3400934E8,9.781293E7,3.8973786E8,9.770926E8,6.926546E8,1.296806E8,4.208952E7,1.4184691E8,5.6207812E7,0E0,0E0,0E0,0E0,0E0,0E0,0E0,0E0,0E0,0E0,0E0,0E0,0E0,0E0,0E0,0E0,0E0,0E0,0E0,0E0,0E0,0E0,0E0,0E0,0E0,0E0,0E0,0E0,0E0,0E0,0E0,0E0,0E0,0E0,0E0,0E0,0E0,0E0,0E0,0E0,0E0,0E0,0E0,0E0,0E0,0E0,0E0,0E0,0E0,0E0,0E0,0E0,0E0,0E0,0E0,0E0,0E0,0E0,0E0,0E0,0E0,0E0,0E0,0E0],"parents":[2147483647,0,0,1,1,2,2,3,3,4,4,5,5,6,6,7,7,8,8,9,9,10,10,11,11,12,12,13,13,14,14,15,15,16,16,17,17,18,18,19,19,20,20,21,21,22,22,23,23,24,24,25,25,26,26,27,27,28,28,29,29,30,30,31,31,32,32,33,33,34,34,35,35,36,36,37,37,38,38,39,39,40,40,41,41,42,42,43,43,44,44,45,45,46,46,47,47,48,48,49,49,50,50,51,51,52,52,53,53,54,54,55,55,56,56,57,57,58,58,59,59,60,60,61,61,62,62],"right_children":[2,4,6,8,10,12,14,16,18,20,22,24,26,28,30,32,34,36,38,40,42,44,46,48,50,52,54,56,58,60,62,64,66,68,70,72,74,76,78,80,82,84,86,88,90,92,94,96,98,100,102,104,106,108,110,112,114,116,118,120,122,124,126,-1,-1,-1,-1,-1,-1,-1,-1,-1,-1,-1,-1,-1,-1,-1,-1,-1,-1,-1,-1,-1,-1,-1,-1,-1,-1,-1,-1,-1,-1,-1,-1,-1,-1,-1,-1,-1,-1,-1,-1,-1,-1,-1,-1,-1,-1,-1,-1,-1,-1,-1,-1,-1,-1,-1,-1,-1,-1,-1,-1,-1,-1,-1,-1],"split_conditions":[1.8206293E-2,2.7734923E-1,2.948228E-1,3.2204038E-1,1E0,6.25E-1,1.6057098E-2,2.0450078E-1,1.5043836E-2,5.1081115E-1,5E-1,5E-1,1.1190977E-1,5E-1,5E-1,6.740484E-2,1.8542124E-2,3.131991E-1,5E-1,4.474273E-1,3.2204038E-1,3.380282E-2,4.5017412E-1,1.4159793E-1,1.4084507E-2,1.4084507E-2,2.0220269E-2,1.6713418E-1,2.3929093E-2,2.1434015E-2,3.6342565E-2,3.0711507E-2,5E-1,5E-1,5E-1,1.2849871E-2,5.1949292E-2,3.2098764E-1,1.771803E-2,5.416667E-1,1E0,5E-1,6.0606062E-2,1.10738255E-1,2.202265E-1,1.971831E-2,2.948228E-1,1.4084507E-2,1.4084507E-2,1.4159793E-1,5.416667E-1,1.4260599E-1,5E-1,5E-1,3.3369973E-2,5.267606E-1,2.8011963E-2,3.7125993E-1,5.391667E-1,4.1385436E-1,2.225055E-2,2.632147E-2,6.428095E-2,-1.9769592E2,-2.2173115E1,5.9824734E0,2.4254906E2,6.579724E2,1.4903069E3,-4.571826E1,3.6468488E2,-4.1470346E2,2.1703064E3,-1.4498297E3,-5.1241766E2,1.5745691E3,-5.5983295E2,4.992764E3,8.9675415E2,-1.217047E2,7.5074634E2,-3.393102E3,-1.6774802E2,7.3704706E2,1.7328153E3,1.4234514E3,3.7038987E3,-1.7666162E1,-3.5573447E2,-1.0195035E2,1.4406865E2,-4.6483635E1,3.6516376E2,6.6509424E2,1.9976934E3,-3.570863E1,-1.4103781E2,-5.4539356E1,-3.190523E2,-1.02824104E2,-1.9428117E2,-9.209317E1,4.4929007E-1,-1.3051007E2,-4.1497092E2,-9.190271E1,3.3623962E1,1.8513884E1,2.7080673E2,-7.677261E1,-2.3865292E2,-1.09986984E2,1.4142487E3,8.85407E2,1.4706134E2,2.8838076E3,1.7624786E3,-2.2688083E2,1.2492345E3,-4.509878E2,6.335996E2,-1.0959917E3,-3.3209277E2,6.563626E2,2.1101082E2,9.744099E2,-3.8556165E2],"split_indices":[20,13,4,4,10,12,19,4,20,13,8,5,13,8,8,4,19,18,8,18,4,6,14,4,6,6,19,13,20,19,19,4,8,8,8,20,21,17,19,12,3,8,0,16,4,6,4,6,6,4,12,4,8,8,19,6,20,13,12,11,19,20,21,0,0,0,0,0,0,0,0,0,0,0,0,0,0,0,0,0,0,0,0,0,0,0,0,0,0,0,0,0,0,0,0,0,0,0,0,0,0,0,0,0,0,0,0,0,0,0,0,0,0,0,0,0,0,0,0,0,0,0,0,0,0,0,0],"split_type":[0,0,0,0,0,0,0,0,0,0,0,0,0,0,0,0,0,0,0,0,0,0,0,0,0,0,0,0,0,0,0,0,0,0,0,0,0,0,0,0,0,0,0,0,0,0,0,0,0,0,0,0,0,0,0,0,0,0,0,0,0,0,0,0,0,0,0,0,0,0,0,0,0,0,0,0,0,0,0,0,0,0,0,0,0,0,0,0,0,0,0,0,0,0,0,0,0,0,0,0,0,0,0,0,0,0,0,0,0,0,0,0,0,0,0,0,0,0,0,0,0,0,0,0,0,0,0],"sum_hessian":[2.93567E5,4.9281E4,2.44286E5,4.3566E4,5.715E3,2.42682E5,1.604E3,4.1204E4,2.362E3,3.469E3,2.246E3,1.8369E5,5.8992E4,1.062E3,5.42E2,3.9577E4,1.627E3,2.325E3,3.7E1,3.166E3,3.03E2,8.59E2,1.387E3,1.9762E4,1.63928E5,2.7892E4,3.11E4,4.05E2,6.57E2,2.11E2,3.31E2,1.2312E4,2.7265E4,1.119E3,5.08E2,1.89E3,4.35E2,1.6E1,2.1E1,3.14E3,2.6E1,2.4E2,6.3E1,3E2,5.59E2,1.278E3,1.09E2,1.5932E4,3.83E3,3.525E4,1.28678E5,4.411E3,2.3481E4,2.5758E4,5.342E3,7.4E1,3.31E2,2.95E2,3.62E2,3.9E1,1.72E2,2.92E2,3.9E1,1.576E3,1.0736E4,1.0927E4,1.6338E4,4.53E2,6.66E2,2.14E2,2.94E2,1.877E3,1.3E1,2.96E2,1.39E2,1E1,6E0,1.7E1,4E0,3.18E2,2.822E3,1.7E1,9E0,8.7E1,1.53E2,1.5E1,4.8E1,1.25E2,1.75E2,3.76E2,1.83E2,3.38E2,9.4E2,8E1,2.9E1,3.383E3,1.2549E4,8.1E2,3.02E3,2.8272E4,6.978E3,3.7574E4,9.1104E4,3.746E3,6.65E2,9.325E3,1.4156E4,1.029E4,1.5468E4,3.674E3,1.668E3,7.1E1,3E0,2.43E2,8.8E1,1.43E2,1.52E2,3.1E1,3.31E2,1.6E1,2.3E1,6E0,1.66E2,1.94E2,9.8E1,2E0,3.7E1],"tree_param":{"num_deleted":"0","num_feature":"22","num_nodes":"127","size_leaf_vector":"1"}},{"base_weights":[2.1254818E-1,-1.3807985E2,2.0225061E2,-1.4073462E2,5.869753E3,3.697677E2,-2.2048662E2,2.7480594E2,-1.6802515E2,3.8266816E3,9.966274E3,2.1249069E2,9.983666E2,-1.0982689E2,-5.512533E2,1.3442744E2,8.308088E2,-2.1139594E2,5.453821E0,9.7199896E2,5.9828716E3,1.3010455E4,4.0989585E3,-3.6904877E2,3.6433734E2,4.2993967E2,1.5107374E3,5.301108E2,-1.6988701E2,-2.7189886E2,-7.291923E2,-3.4742215E2,2.674378E2,1.2172864E3,2.307671E2,-5.465532E2,-1.9747096E2,1.4124084E2,-2.0014308E2,-1.4865168E3,2.8342615E3,1.7389749E3,9.587595E3,1.4248406E3,1.4551493E4,-5.095179E2,5.314767E3,3.3467996E2,-4.6787454E2,-6.651193E2,5.1008444E2,1.1270149E3,1.6047662E2,5.556974E2,2.1310347E3,2.749496E2,1.4487572E3,-1.0647278E2,-4.13129E2,-4.7123642E2,-1.2671563E-1,-4.2944644E2,-8.855396E2,1.5668204E1,-1.2011972E2,1.4220958E2,-1.3810641E1,1.4600864E2,5.068238E2,-8.490398E1,1.0350575E2,-2.0468425E2,-6.936201E1,-5.383947E1,-1.269437E2,1.3567358E2,-5.681408E0,-1.539578E2,-5.3106007E1,2.5189455E2,-1.0694788E3,1.3544845E3,-3.281892E2,-6.051793E2,1.8960002E3,4.230848E3,1.8759427E3,1.5515792E3,4.736008E3,1.9951846E2,-4.2880154E2,1.9886614E3,7.030336E2,-6.560915E1,2.038755E2,-1.0179308E2,-2.720656E2,-1.2296812E2,-2.5200963E2,-1.1021786E2,2.0704286E2,-1.0042422E2,4.276393E2,3.1651361E1,7.011749E2,2.779683E2,-6.287665E1,7.642203E2,2.091326E2,-1.7583049E2,1.6519391E2,3.8499722E2,1.5394965E3,-3.551432E1,3.8072415E2,-7.4240944E1,-1.5799356E2,-1.0256697E2,-3.1602875E2,6.660884E1,-2.6417639E1,9.630394E0,-1.4177568E2,-2.2205927E2,-3.7524985E2],"categories":[],"categories_nodes":[],"categories_segments":[],"categories_sizes":[],"default_left":[0,0,0,0,0,0,0,0,0,0,0,0,0,0,0,0,0,0,0,0,0,0,0,0,0,0,0,0,0,0,0,0,0,0,0,0,0,0,0,0,0,0,0,0,0,0,0,0,0,0,0,0,0,0,0,0,0,0,0,0,0,0,0,0,0,0,0,0,0,0,0,0,0,0,0,0,0,0,0,0,0,0,0,0,0,0,0,0,0,0,0,0,0,0,0,0,0,0,0,0,0,0,0,0,0,0,0,0,0,0,0,0,0,0,0,0,0,0,0,0,0,0,0,0,0],"id":11,"left_children":[1,3,5,7,9,11,13,15,17,19,21,23,25,27,29,31,33,35,37,39,41,43,45,47,49,51,53,55,57,59,61,63,65,67,69,71,73,75,77,79,81,83,85,-1,87,89,91,93,95,97,99,101,103,105,107,109,111,113,115,117,119,121,123,-1,-1,-1,-1,-1,-1,-1,-1,-1,-1,-1,-1,-1,-1,-1,-1,-1,-1,-1,-1,-1,-1,-1,-1,-1,-1,-1,-1,-1,-1,-1,-1,-1,-1,-1,-1,-1,-1,-1,-1,-1,-1,-1,-1,-1,-1,-1,-1,-1,-1,-1,-1,-1,-1,-1,-1,-1,-1,-1,-1,-1,-1],"loss_changes":[8.202414E9,2.7804516E9,8.4477583E9,1.9755533E9,6.0631245E8,8.446344E9,1.2391555E9,8.3784224E8,1.2299131E9,3.204123E8,3.9319987E8,6.0347986E9,4.979066E9,9.751793E8,4.21674E8,5.4954496E8,5.0155635E8,6.1021696E8,9.127873E8,1.1409482E8,4.422697E8,1.3457613E8,5.873824E7,9.8424E8,8.131023E9,1.5226054E9,5.3257544E9,5.0989683E8,3.5772352E8,1.7899218E8,2.4256486E8,3.929531E7,4.3515594E8,4.5310733E8,4.993435E7,2.2309338E8,5.101307E8,9.809422E8,9.404797E7,5.617533E7,9.736882E7,2.7086054E8,1.5270618E8,0E0,6.896538E7,4.1918045E6,1.5702608E7,3.32822E8,7.000133E8,2.9969613E8,7.500376E9,9.8642995E8,6.995355E8,1.0054733E9,3.2526787E9,4.0507107E8,2.816009E8,3.015347E8,9.005856E7,1.431704E8,2.734853E7,3.5436416E7,1.7990707E8,0E0,0E0,0E0,0E0,0E0,0E0,0E0,0E0,0E0,0E0,0E0,0E0,0E0,0E0,0E0,0E0,0E0,0E0,0E0,0E0,0E0,0E0,0E0,0E0,0E0,0E0,0E0,0E0,0E0,0E0,0E0,0E0,0E0,0E0,0E0,0E0,0E0,0E0,0E0,0E0,0E0,0E0,0E0,0E0,0E0,0E0,0E0,0E0,0E0,0E0,0E0,0E0,0E0,0E0,0E0,0E0,0E0,0E0,0E0,0E0,0E0,0E0],"parents":[2147483647,0,0,1,1,2,2,3,3,4,4,5,5,6,6,7,7,8,8,9,9,10,10,11,11,12,12,13,13,14,14,15,15,16,16,17,17,18,18,19,19,20,20,21,21,22,22,23,23,24,24,25,25,26,26,27,27,28,28,29,29,30,30,31,31,32,32,33,33,34,34,35,35,36,36,37,37,38,38,39,39,40,40,41,41,42,42,44,44,45,45,46,46,47,47,48,48,49,49,50,50,51,51,52,52,53,53,54,54,55,55,56,56,57,57,58,58,59,59,60,60,61,61,62,62],"right_children":[2,4,6,8,10,12,14,16,18,20,22,24,26,28,30,32,34,36,38,40,42,44,46,48,50,52,54,56,58,60,62,64,66,68,70,72,74,76,78,80,82,84,86,-1,88,90,92,94,96,98,100,102,104,106,108,110,112,114,116,118,120,122,124,-1,-1,-1,-1,-1,-1,-1,-1,-1,-1,-1,-1,-1,-1,-1,-1,-1,-1,-1,-1,-1,-1,-1,-1,-1,-1,-1,-1,-1,-1,-1,-1,-1,-1,-1,-1,-1,-1,-1,-1,-1,-1,-1,-1,-1,-1,-1,-1,-1,-1,-1,-1,-1,-1,-1,-1,-1,-1,-1,-1,-1,-1],"split_conditions":[1.099449E-1,3.2962587E-1,2.0128617E-2,1.4751065E-2,4.519051E-1,1E0,3.41858E-2,1E0,1E0,5.925E-1,1E0,1.4084507E-2,7.042254E-2,1.5491052E-2,5E-1,1.4084507E-2,2.4701059E-2,3.9149888E-2,1E0,2.8169014E-2,5E-1,5.208333E-1,2.8169013E-3,5E-1,5E-1,2.0152738E-2,5E-1,1E0,1.6997498E-1,2.779735E-2,3.534636E-1,5E-1,1.3174667E-2,6.317099E-2,4.4421103E-2,3.5348576E-2,3.691275E-1,2.5872855E-2,5.1454138E-2,3.4034595E-1,5.7416666E-1,2.8993288E-1,2.1212122E-1,1.4248406E3,5E-1,2.1212122E-1,1E0,5E-1,6.2416667E-1,1.4159793E-1,5.416667E-1,7.28144E-2,2.7929872E-1,3.1153232E-2,3.5516456E-2,1.690141E-2,2.427293E-1,3.2204038E-1,1.4079149E-1,6.2583333E-1,5.416667E-1,1.6199244E-2,3.7727043E-2,1.5668204E1,-1.2011972E2,1.4220958E2,-1.3810641E1,1.4600864E2,5.068238E2,-8.490398E1,1.0350575E2,-2.0468425E2,-6.936201E1,-5.383947E1,-1.269437E2,1.3567358E2,-5.681408E0,-1.539578E2,-5.3106007E1,2.5189455E2,-1.0694788E3,1.3544845E3,-3.281892E2,-6.051793E2,1.8960002E3,4.230848E3,1.8759427E3,1.5515792E3,4.736008E3,1.9951846E2,-4.2880154E2,1.9886614E3,7.030336E2,-6.560915E1,2.038755E2,-1.0179308E2,-2.720656E2,-1.2296812E2,-2.5200963E2,-1.1021786E2,2.0704286E2,-1.0042422E2,4.276393E2,3.1651361E1,7.011749E2,2.779683E2,-6.287665E1,7.642203E2,2.091326E2,-1.7583049E2,1.6519391E2,3.8499722E2,1.5394965E3,-3.551432E1,3.8072415E2,-7.4240944E1,-1.5799356E2,-1.0256697E2,-3.1602875E2,6.660884E1,-2.6417639E1,9.630394E0,-1.4177568E2,-2.2205927E2,-3.7524985E2],"split_indices":[4,14,19,20,13,5,19,5,5,12,10,6,6,20,8,6,21,18,10,6,8,12,6,5,5,20,8,5,21,20,11,5,19,4,4,4,18,20,18,13,12,16,0,0,9,0,8,8,12,4,12,13,4,20,20,6,18,4,4,12,12,20,19,0,0,0,0,0,0,0,0,0,0,0,0,0,0,0,0,0,0,0,0,0,0,0,0,0,0,0,0,0,0,0,0,0,0,0,0,0,0,0,0,0,0,0,0,0,0,0,0,0,0,0,0,0,0,0,0,0,0,0,0,0,0],"split_type":[0,0,0,0,0,0,0,0,0,0,0,0,0,0,0,0,0,0,0,0,0,0,0,0,0,0,0,0,0,0,0,0,0,0,0,0,0,0,0,0,0,0,0,0,0,0,0,0,0,0,0,0,0,0,0,0,0,0,0,0,0,0,0,0,0,0,0,0,0,0,0,0,0,0,0,0,0,0,0,0,0,0,0,0,0,0,0,0,0,0,0,0,0,0,0,0,0,0,0,0,0,0,0,0,0,0,0,0,0,0,0,0,0,0,0,0,0,0,0,0,0,0,0,0,0],"sum_hessian":[2.93567E5,1.74277E5,1.1929E5,1.74201E5,7.6E1,8.5435E4,3.3855E4,1.0735E4,1.63466E5,5.2E1,2.4E1,6.8338E4,1.7097E4,2.5369E4,8.486E3,8.572E3,2.163E3,1.30772E5,3.2694E4,2.3E1,2.9E1,1.5E1,9E0,1.4149E4,5.4189E4,8.106E3,8.991E3,2.176E3,2.3193E4,3.303E3,5.183E3,1.854E3,6.718E3,1.315E3,8.48E2,5.215E3,1.25557E5,1.969E4,1.3004E4,1E1,1.3E1,1.4E1,1.5E1,3E0,1.2E1,2E0,7E0,1.742E3,1.2407E4,6.72E3,4.7469E4,2.259E3,5.847E3,3.541E3,5.45E3,1.704E3,4.72E2,1.8398E4,4.795E3,1.905E3,1.398E3,1.778E3,3.405E3,2.17E2,1.637E3,4.049E3,2.669E3,5.17E2,7.98E2,1.54E2,6.94E2,3.645E3,1.57E3,1.16281E5,9.276E3,6.693E3,1.2997E4,8.93E2,1.2111E4,5E0,5E0,9E0,4E0,8E0,6E0,5E0,1E1,2E0,1E1,1E0,1E0,4E0,3E0,6.69E2,1.073E3,9.598E3,2.809E3,2.734E3,3.986E3,8.082E3,3.9387E4,3.83E2,1.876E3,5.704E3,1.43E2,2.385E3,1.156E3,4.223E3,1.227E3,4.13E2,1.291E3,4.53E2,1.9E1,1.8241E4,1.57E2,1.951E3,2.844E3,1.56E3,3.45E2,3.96E2,1.002E3,1.52E2,1.626E3,2.438E3,9.67E2],"tree_param":{"num_deleted":"0","num_feature":"22","num_nodes":"125","size_leaf_vector":"1"}},{"base_weights":[2.1893337E-1,-2.868962E1,6.4330774E2,5.0783435E2,-6.8826126E1,-1.2240753E3,1.1223981E3,1.995837E2,1.154182E3,-5.0842533E1,-6.812913E2,7.7911445E3,-1.3225087E3,2.4807444E3,6.870731E2,-1.6095502E2,3.4284973E2,1.5476115E3,1.8036134E2,-1.7644151E2,3.2795425E1,-9.8949854E2,-1.5743832E2,9.846014E3,3.107778E3,-7.1162354E2,-2.2904153E3,8.6974445E2,3.5240413E3,1.0006977E3,-3.2484302E2,-8.2411035E2,-1.17187004E2,-1.1242809E2,4.8504114E2,1.1469349E3,2.2830203E3,6.822026E-1,8.0130963E2,-2.0121312E2,-6.7187285E0,1.4332469E2,-2.6922235E2,-4.324364E2,-1.352358E3,-1.6365955E2,4.1745654E3,1.0564176E4,2.4944265E3,1.0760225E3,1.2848835E3,-1.1664634E3,1.3544467E2,-3.6481863E3,-1.0133467E3,2.3963442E3,1.20480415E2,4.6704443E3,1.0505573E3,1.553517E2,1.5106608E3,-4.3605722E2,1.8724951E3,-7.566989E1,-4.2875452E2,-1.1382103E2,-1.2761556E1,-8.305245E1,2.8194353E1,4.3316753E1,2.1338153E2,1.5987044E2,4.6605994E2,2.0370976E2,7.822322E2,-1.8172787E2,5.5254173E1,7.531887E1,4.2570892E2,-7.185458E1,-3.501805E1,8.402342E0,-3.0340833E2,-4.518393E1,8.567619E1,-5.217987E1,-1.2880644E2,-1.1268689E3,-1.2261929E2,-2.5934015E2,-6.2368414E2,-9.8674934E1,-5.840091E0,1.5133898E3,2.3465494E2,4.5486652E2,3.3104727E3,1.1122981E3,1.0193848E1,1.0564486E2,4.3236642E2,-8.725476E1,-5.1677E2,1.9980272E2,-2.1453181E2,-7.1378265E2,-1.589377E3,-3.7688757E2,1.5004877E3,1.0768868E3,2.9183182E1,-6.617797E1,6.6786566E2,1.1224628E3,2.3064858E3,6.590363E2,1.7317546E2,-1.5206166E2,1.0282453E2,6.1858887E2,7.790457E1,-1.02075676E2,-5.992306E2,8.465097E1,9.8514746E2],"categories":[],"categories_nodes":[],"categories_segments":[],"categories_sizes":[],"default_left":[0,0,0,0,0,0,0,0,0,0,0,0,0,0,0,0,0,0,0,0,0,0,0,0,0,0,0,0,0,0,0,0,0,0,0,0,0,0,0,0,0,0,0,0,0,0,0,0,0,0,0,0,0,0,0,0,0,0,0,0,0,0,0,0,0,0,0,0,0,0,0,0,0,0,0,0,0,0,0,0,0,0,0,0,0,0,0,0,0,0,0,0,0,0,0,0,0,0,0,0,0,0,0,0,0,0,0,0,0,0,0,0,0,0,0,0,0,0,0,0,0,0,0,0,0],"id":12,"left_children":[1,3,5,7,9,11,13,15,17,19,21,23,25,27,29,31,33,35,37,39,41,43,45,47,49,51,53,55,57,59,61,63,65,67,69,71,73,75,77,79,81,83,85,87,89,91,93,95,97,99,-1,101,103,105,107,109,111,113,115,117,119,121,123,-1,-1,-1,-1,-1,-1,-1,-1,-1,-1,-1,-1,-1,-1,-1,-1,-1,-1,-1,-1,-1,-1,-1,-1,-1,-1,-1,-1,-1,-1,-1,-1,-1,-1,-1,-1,-1,-1,-1,-1,-1,-1,-1,-1,-1,-1,-1,-1,-1,-1,-1,-1,-1,-1,-1,-1,-1,-1,-1,-1,-1,-1],"loss_changes":[5.4576727E9,6.049853E9,1.1299848E10,3.8956518E9,2.8789668E9,2.2989056E9,5.941672E9,6.8399206E8,2.4188022E9,2.6675213E9,1.2036549E9,2.3886477E8,1.5073157E9,4.0962857E9,2.4163996E9,1.09211544E8,6.1349824E8,1.3224724E9,2.0283638E8,4.2675277E8,5.0883937E9,9.4823834E8,7.5147064E7,7.396134E7,1.9267968E7,6.0350694E8,1.7077284E9,1.0977844E9,4.1917972E9,2.5052913E9,4.411806E8,8.026371E7,6.915859E7,7.658666E7,5.5639014E8,7.264461E8,8.230093E8,1.5712918E8,1.383223E8,2.866043E8,4.51092E8,4.6663726E9,6.2308506E8,1.4446634E8,1.00568115E9,6.5761136E7,7.860568E6,5.5674496E7,8.829308E6,8.14262E5,0E0,4.956827E8,2.4777326E8,9.880248E8,7.5155085E8,8.6657395E8,4.637377E8,2.8053484E9,2.53715E8,2.717014E8,2.4995082E9,2.56013E8,1.9434256E8,0E0,0E0,0E0,0E0,0E0,0E0,0E0,0E0,0E0,0E0,0E0,0E0,0E0,0E0,0E0,0E0,0E0,0E0,0E0,0E0,0E0,0E0,0E0,0E0,0E0,0E0,0E0,0E0,0E0,0E0,0E0,0E0,0E0,0E0,0E0,0E0,0E0,0E0,0E0,0E0,0E0,0E0,0E0,0E0,0E0,0E0,0E0,0E0,0E0,0E0,0E0,0E0,0E0,0E0,0E0,0E0,0E0,0E0,0E0,0E0,0E0,0E0],"parents":[2147483647,0,0,1,1,2,2,3,3,4,4,5,5,6,6,7,7,8,8,9,9,10,10,11,11,12,12,13,13,14,14,15,15,16,16,17,17,18,18,19,19,20,20,21,21,22,22,23,23,24,24,25,25,26,26,27,27,28,28,29,29,30,30,31,31,32,32,33,33,34,34,35,35,36,36,37,37,38,38,39,39,40,40,41,41,42,42,43,43,44,44,45,45,46,46,47,47,48,48,49,49,51,51,52,52,53,53,54,54,55,55,56,56,57,57,58,58,59,59,60,60,61,61,62,62],"right_children":[2,4,6,8,10,12,14,16,18,20,22,24,26,28,30,32,34,36,38,40,42,44,46,48,50,52,54,56,58,60,62,64,66,68,70,72,74,76,78,80,82,84,86,88,90,92,94,96,98,100,-1,102,104,106,108,110,112,114,116,118,120,122,124,-1,-1,-1,-1,-1,-1,-1,-1,-1,-1,-1,-1,-1,-1,-1,-1,-1,-1,-1,-1,-1,-1,-1,-1,-1,-1,-1,-1,-1,-1,-1,-1,-1,-1,-1,-1,-1,-1,-1,-1,-1,-1,-1,-1,-1,-1,-1,-1,-1,-1,-1,-1,-1,-1,-1,-1,-1,-1,-1,-1,-1,-1],"split_conditions":[2.3333125E-1,1.5043836E-2,1.255666E-2,1.1942065E-1,4.8769575E-1,3.2204038E-1,1.9194296E-2,5.441667E-1,2.0407999E-2,5E-1,3.580138E-2,5.341043E-2,2.3825504E-1,5E-1,3.0563006E-2,4.5583335E-1,4.4588592E-2,1.6921873E-1,1E0,6.1703976E-2,2.163248E-2,5E-1,5.659771E-1,1E0,5.875E-1,6.666667E-1,6.666667E-1,1.5200652E-2,1.8542124E-2,5E-1,3.2204038E-1,4.3416667E-1,4.0088825E-2,2.7173912E-2,5E-1,5E-1,5.575E-1,1.4084507E-2,7.042254E-2,5.0061803E-2,2.3584084E-1,6.965872E-2,3.2650262E-2,3.3148177E-2,5.4697984E-1,2.6517231E-2,6.969697E-1,2.8169013E-3,2.1212122E-1,5E-1,1.2848835E3,5E-1,1.3797335E-1,1.3458392E-1,5.1081115E-1,1.6356265E-2,3.489933E-1,2.948228E-1,1.4751065E-2,1.6146564E-1,1.8226514E-2,4.3704987E-2,9.014084E-2,-7.566989E1,-4.2875452E2,-1.1382103E2,-1.2761556E1,-8.305245E1,2.8194353E1,4.3316753E1,2.1338153E2,1.5987044E2,4.6605994E2,2.0370976E2,7.822322E2,-1.8172787E2,5.5254173E1,7.531887E1,4.2570892E2,-7.185458E1,-3.501805E1,8.402342E0,-3.0340833E2,-4.518393E1,8.567619E1,-5.217987E1,-1.2880644E2,-1.1268689E3,-1.2261929E2,-2.5934015E2,-6.2368414E2,-9.8674934E1,-5.840091E0,1.5133898E3,2.3465494E2,4.5486652E2,3.3104727E3,1.1122981E3,1.0193848E1,1.0564486E2,4.3236642E2,-8.725476E1,-5.1677E2,1.9980272E2,-2.1453181E2,-7.1378265E2,-1.589377E3,-3.7688757E2,1.5004877E3,1.0768868E3,2.9183182E1,-6.617797E1,6.6786566E2,1.1224628E3,2.3064858E3,6.590363E2,1.7317546E2,-1.5206166E2,1.0282453E2,6.1858887E2,7.790457E1,-1.02075676E2,-5.992306E2,8.465097E1,9.8514746E2],"split_indices":[4,20,20,4,18,4,20,12,19,8,21,21,18,8,20,12,13,4,5,20,19,8,13,7,12,3,3,20,19,8,4,12,13,13,8,8,12,6,6,21,20,13,19,20,18,19,0,6,0,8,0,8,13,13,13,19,18,4,20,13,19,20,6,0,0,0,0,0,0,0,0,0,0,0,0,0,0,0,0,0,0,0,0,0,0,0,0,0,0,0,0,0,0,0,0,0,0,0,0,0,0,0,0,0,0,0,0,0,0,0,0,0,0,0,0,0,0,0,0,0,0,0,0,0,0],"split_type":[0,0,0,0,0,0,0,0,0,0,0,0,0,0,0,0,0,0,0,0,0,0,0,0,0,0,0,0,0,0,0,0,0,0,0,0,0,0,0,0,0,0,0,0,0,0,0,0,0,0,0,0,0,0,0,0,0,0,0,0,0,0,0,0,0,0,0,0,0,0,0,0,0,0,0,0,0,0,0,0,0,0,0,0,0,0,0,0,0,0,0,0,0,0,0,0,0,0,0,0,0,0,0,0,0,0,0,0,0,0,0,0,0,0,0,0,0,0,0,0,0,0,0,0,0],"sum_hessian":[2.93567E5,2.80939E5,1.2628E4,1.9553E4,2.61386E5,2.578E3,1.005E4,1.324E4,6.313E3,2.53931E5,7.455E3,2.7E1,2.551E3,2.438E3,7.612E3,3.765E3,9.475E3,4.496E3,1.817E3,1.01503E5,1.52428E5,4.693E3,2.762E3,1.8E1,9E0,1.565E3,9.86E2,9.59E2,1.479E3,5.811E3,1.801E3,2.32E2,3.533E3,2.255E3,7.22E3,2.912E3,1.584E3,1.41E3,4.07E2,8.8575E4,1.2928E4,1.1159E5,4.0838E4,1.852E3,2.841E3,2.759E3,3E0,1.6E1,2E0,4E0,5E0,1.018E3,5.47E2,4.77E2,5.09E2,3.15E2,6.44E2,1.01E3,4.69E2,2.187E3,3.624E3,1.715E3,8.6E1,1.2E2,1.12E2,7.82E2,2.751E3,1.255E3,1E3,2.882E3,4.338E3,1.161E3,1.751E3,2.67E2,1.317E3,3.27E2,1.083E3,2.16E2,1.91E2,6.0944E4,2.7631E4,1.2497E4,4.31E2,3.6394E4,7.5196E4,2.5604E4,1.5234E4,1.2E1,1.84E3,1.701E3,1.14E3,1.285E3,1.474E3,2E0,1E0,1E0,1.5E1,1E0,1E0,2E0,2E0,3.96E2,6.22E2,3.37E2,2.1E2,2.71E2,2.06E2,4.9E2,1.9E1,2.07E2,1.08E2,5.55E2,8.9E1,7.74E2,2.36E2,1.36E2,3.33E2,4.82E2,1.705E3,2.515E3,1.109E3,1.617E3,9.8E1,4.1E1,4.5E1],"tree_param":{"num_deleted":"0","num_feature":"22","num_nodes":"125","size_leaf_vector":"1"}},{"base_weights":[1.9561449E-1,-5.687837E1,2.276812E2,-2.8142593E2,1.1434147E0,1.2797812E2,8.958642E2,-4.1479242E2,-1.0185873E2,-3.8249557E2,5.6004063E1,3.8891675E2,1.5235546E0,-8.3044556E1,1.2054955E3,-3.3365646E2,-8.6110486E2,3.157776E1,-1.9175044E2,-5.670473E2,-1.8800198E2,2.983745E2,-2.0924976E1,8.656504E1,6.8606067E2,-8.7080157E-1,7.51161E3,-1.2650159E3,1.1776294E2,5.474393E2,1.7881676E3,-2.9404694E2,-1.0002731E3,-2.7543001E1,-9.7543365E2,1.6634476E2,-4.281813E1,-3.555041E2,-7.9109665E1,-3.5013174E2,-7.1410187E2,-2.827479E2,-4.6869278E1,-1.2167563E1,5.0396326E2,-3.5372616E1,1.0922028E3,-2.9147955E2,2.3535393E2,6.754865E1,8.985587E2,9.190092E1,-1.8859282E2,1.0039839E4,5.7724927E2,2.3306587E3,-1.6461007E3,-2.1025023E1,1.644591E3,1.3036737E3,3.3141974E2,2.4331753E3,8.2909686E2,7.3710876E0,-1.01885735E2,-4.2582523E2,-1.4308846E2,-3.5962734E1,5.846319E2,-2.6807764E2,-5.559965E2,-2.373443E2,5.485242E1,-1.3893415E1,1.1056072E3,-1.08873344E2,7.54334E2,-1.49650345E1,-2.8507074E2,-1.1310106E2,1.5124242E2,-2.6202637E2,-1.3469904E2,-7.0006836E1,-2.2510641E2,2.8023542E1,-4.1067783E1,2.820221E1,-6.634631E1,-1.9917805E1,2.0906146E2,-2.1512787E0,-1.4485565E2,5.1146893E1,4.9124368E2,-7.2409424E1,-5.6731476E2,-8.176125E1,1.0595469E2,-9.8980255E1,8.2820145E1,3.611852E2,1.2107824E2,6.55253E1,-4.3522087E1,9.488504E2,-6.144155E1,3.7212996E3,5.892722E2,-7.985406E1,2.8413574E2,-4.8466245E2,1.5996726E3,-6.520592E2,-1.9922824E2,2.881465E2,-5.7574272E1,-1.2522385E1,8.83226E2,3.027172E2,9.5221173E2,1.4714365E2,-1.1178387E2,-8.7748627E2,8.073017E2,9.7506895E0,3.986266E2],"categories":[],"categories_nodes":[],"categories_segments":[],"categories_sizes":[],"default_left":[0,0,0,0,0,0,0,0,0,0,0,0,0,0,0,0,0,0,0,0,0,0,0,0,0,0,0,0,0,0,0,0,0,0,0,0,0,0,0,0,0,0,0,0,0,0,0,0,0,0,0,0,0,0,0,0,0,0,0,0,0,0,0,0,0,0,0,0,0,0,0,0,0,0,0,0,0,0,0,0,0,0,0,0,0,0,0,0,0,0,0,0,0,0,0,0,0,0,0,0,0,0,0,0,0,0,0,0,0,0,0,0,0,0,0,0,0,0,0,0,0,0,0,0,0,0,0],"id":13,"left_children":[1,3,5,7,9,11,13,15,17,19,21,23,25,27,29,31,33,35,37,39,41,43,45,47,49,51,53,55,57,59,61,63,65,67,69,71,73,75,77,79,81,83,85,87,89,91,93,95,97,99,101,103,105,107,109,111,113,115,117,119,121,123,125,-1,-1,-1,-1,-1,-1,-1,-1,-1,-1,-1,-1,-1,-1,-1,-1,-1,-1,-1,-1,-1,-1,-1,-1,-1,-1,-1,-1,-1,-1,-1,-1,-1,-1,-1,-1,-1,-1,-1,-1,-1,-1,-1,-1,-1,-1,-1,-1,-1,-1,-1,-1,-1,-1,-1,-1,-1,-1,-1,-1,-1,-1,-1,-1],"loss_changes":[3.8115553E9,3.057668E9,3.9225318E9,1.1540242E9,3.9252068E9,1.6906606E9,2.3173053E9,1.0010465E9,2.4636795E8,8.374111E8,3.042308E9,1.5025475E9,6.206131E8,4.3639587E8,2.225988E9,6.1756774E8,4.052846E8,8.290301E7,2.2633306E8,3.816379E8,1.5191658E8,2.5098394E9,1.9918993E9,4.664277E8,1.108574E9,6.008972E8,1.8705267E8,3.696951E8,3.3314976E8,4.453812E8,1.9032965E9,3.207424E8,2.8710106E8,9.402766E7,2.670546E8,4.6598936E7,6.955959E7,1.0722336E8,1.8509565E8,1.1127322E8,3.009221E8,1.568311E8,5.7662212E7,3.47503E8,2.6025006E9,1.5430045E9,7.973284E8,1.8728338E8,3.5616816E8,1.7895157E8,9.484851E8,6.923585E8,6.207132E8,1.2839245E8,1.4999409E6,3.1658045E8,1.2389792E8,2.4205106E8,2.871939E8,3.3072768E8,2.3803418E8,2.5511895E9,4.9350797E8,0E0,0E0,0E0,0E0,0E0,0E0,0E0,0E0,0E0,0E0,0E0,0E0,0E0,0E0,0E0,0E0,0E0,0E0,0E0,0E0,0E0,0E0,0E0,0E0,0E0,0E0,0E0,0E0,0E0,0E0,0E0,0E0,0E0,0E0,0E0,0E0,0E0,0E0,0E0,0E0,0E0,0E0,0E0,0E0,0E0,0E0,0E0,0E0,0E0,0E0,0E0,0E0,0E0,0E0,0E0,0E0,0E0,0E0,0E0,0E0,0E0,0E0,0E0,0E0],"parents":[2147483647,0,0,1,1,2,2,3,3,4,4,5,5,6,6,7,7,8,8,9,9,10,10,11,11,12,12,13,13,14,14,15,15,16,16,17,17,18,18,19,19,20,20,21,21,22,22,23,23,24,24,25,25,26,26,27,27,28,28,29,29,30,30,31,31,32,32,33,33,34,34,35,35,36,36,37,37,38,38,39,39,40,40,41,41,42,42,43,43,44,44,45,45,46,46,47,47,48,48,49,49,50,50,51,51,52,52,53,53,54,54,55,55,56,56,57,57,58,58,59,59,60,60,61,61,62,62],"right_children":[2,4,6,8,10,12,14,16,18,20,22,24,26,28,30,32,34,36,38,40,42,44,46,48,50,52,54,56,58,60,62,64,66,68,70,72,74,76,78,80,82,84,86,88,90,92,94,96,98,100,102,104,106,108,110,112,114,116,118,120,122,124,126,-1,-1,-1,-1,-1,-1,-1,-1,-1,-1,-1,-1,-1,-1,-1,-1,-1,-1,-1,-1,-1,-1,-1,-1,-1,-1,-1,-1,-1,-1,-1,-1,-1,-1,-1,-1,-1,-1,-1,-1,-1,-1,-1,-1,-1,-1,-1,-1,-1,-1,-1,-1,-1,-1,-1,-1,-1,-1,-1,-1,-1,-1,-1,-1],"split_conditions":[1E0,1.4084507E-2,1.754687E-1,3.1723544E-2,5E-1,2.3237474E-2,1.3125291E-1,6.2583333E-1,5E-1,3.0563006E-2,2.0602094E-2,7.042254E-2,4.3302944E-1,7.7775773E-3,7.042254E-2,3.6249417E-1,5E-1,5.45E-1,4.275047E-2,5E-1,2.6539309E-2,5E-1,2.6780686E-1,6.124357E-2,6.538872E-2,4.975188E-2,4.5973155E-1,2.5E-1,2.6780686E-1,1.7948283E-2,1E0,5E-1,1.5275311E-1,7.777778E-1,7.083333E-1,1.4203543E-2,3.2204038E-1,5.659771E-1,5.4697984E-1,2.948228E-1,3.2324575E-2,4.5973155E-1,5E-1,1.5863817E-2,5.416667E-1,4.5973155E-1,5E-1,1.528882E-1,6.5993555E-2,4.1195314E-2,1.4001196E-2,1.6262714E-2,2.5E-1,1E0,2.1212122E-1,